457
-489
471
-510
487
-524
496
-515
511
-501
455
-480
467
-501
486
-515
502
-524
511
-510
535
-571
555
-586
570
-594
579
-579
587
-558
534
-562
550
-576
570
-586
585
-588
587
-567
-81
3
-55
-20
-24
-30
1
-30
25
-31
56
-23
81
-3
74
-2
25
-16
1
-16
-24
-15
-74
2
-81
3
-55
-20
-24
-30
1
-30
25
-31
56
-23
81
-3
74
-2
25
-16
1
-16
-24
-15
-74
2
477
-517
476
-513
474
-511
477
-506
478
-507
478
-503
476
-500
474
-496
457
-489
471
-510
487
-524
496
-515
511
-501
455
-480
467
-501
486
-515
502
-524
511
-510
535
-571
555
-586
570
-594
579
-579
587
-558
534
-562
550
-576
570
-586
585
-588
587
-567
-81
3
-55
-20
-24
-30
1
-30
25
-31
56
-23
81
-3
74
-2
25
-16
1
-16
-24
-15
-74
2
-81
3
-55
-20
-24
-30
1
-30
25
-31
56
-23
81
-3
74
-2
25
-16
1
-16
-24
-15
-74
2
477
-517
476
-513
474
-511
477
-506
478
-507
478
-503
476
-500
474
-496
457
-489
471
-510
487
-524
496
-515
511
-501
455
-480
467
-501
486
-515
502
-524
511
-510
535
-571
555
-586
570
-594
579
-579
587
-558
534
-562
550
-576
570
-586
585
-588
587
-567
-81
3
-55
-20
-24
-30
1
-30
25
-31
56
-23
81
-3
74
-2
25
-16
1
-16
-24
-15
-74
2
-81
3
-55
-20
-24
-30
1
-30
25
-31
56
-23
81
-3
74
-2
25
-16
1
-16
-24
-15
-74
2
477
-517
476
-513
474
-511
477
-506
478
-507
478
-503
476
-500
474
-496
457
-489
471
-510
487
-524
496
-515
511
-501
455
-480
467
-501
486
-515
502
-524
511
-510
535
-571
555
-586
570
-594
579
-579
587
-558
534
-562
550
-576
570
-586
585
-588
587
-567
-81
3
-55
-20
-24
-30
1
-30
25
-31
56
-23
81
-3
74
-2
25
-16
1
-16
-24
-15
-74
2
-81
3
-55
-20
-24
-30
1
-30
25
-31
56
-23
81
-3
74
-2
25
-16
1
-16
-24
-15
-74
2
477
-517
476
-513
474
-511
477
-506
478
-507
478
-503
476
-500
474
-496
457
-489
471
-510
487
-524
496
-515
511
-501
455
-480
467
-501
486
-515
502
-524
511
-510
535
-571
555
-586
570
-594
579
-579
587
-558
534
-562
550
-576
570
-586
585
-588
587
-567
-81
3
-55
-20
-24
-30
1
-30
25
-31
56
-23
81
-3
74
-2
25
-16
1
-16
-24
-15
-74
2
-81
3
-55
-20
-24
-30
1
-30
25
-31
56
-23
81
-3
74
-2
25
-16
1
-16
-24
-15
-74
2
477
-517
476
-513
474
-511
477
-506
478
-507
478
-503
476
-500
474
-496
457
-489
471
-510
487
-524
496
-515
511
-501
455
-480
467
-501
486
-515
502
-524
511
-510
535
-571
555
-586
570
-594
579
-579
587
-558
534
-562
550
-576
570
-586
585
-588
587
-567
-81
3
-55
-20
-24
-30
1
-30
25
-31
56
-23
81
-3
74
-2
25
-16
1
-16
-24
-15
-74
2
-81
3
-55
-20
-24
-30
1
-30
25
-31
56
-23
81
-3
74
-2
25
-16
1
-16
-24
-15
-74
2
477
-517
476
-513
474
-511
477
-506
478
-507
478
-503
476
-500
474
-496
457
-489
471
-510
487
-524
496
-515
511
-501
455
-480
467
-501
486
-515
502
-524
511
-510
535
-571
555
-586
570
-594
579
-579
587
-558
534
-562
550
-576
570
-586
585
-588
587
-567
-81
3
-55
-20
-24
-30
1
-30
25
-31
56
-23
81
-3
74
-2
25
-16
1
-16
-24
-15
-74
2
-81
3
-55
-20
-24
-30
1
-30
25
-31
56
-23
81
-3
74
-2
25
-16
1
-16
-24
-15
-74
2
477
-517
476
-513
474
-511
477
-506
478
-507
478
-503
476
-500
474
-496
457
-489
471
-510
487
-524
496
-515
511
-501
455
-480
467
-501
486
-515
502
-524
511
-510
535
-571
555
-586
570
-594
579
-579
587
-558
534
-562
550
-576
570
-586
585
-588
587
-567
-81
3
-55
-20
-24
-30
1
-30
25
-31
56
-23
81
-3
74
-2
25
-16
1
-16
-24
-15
-74
2
-81
3
-55
-20
-24
-30
1
-30
25
-31
56
-23
81
-3
74
-2
25
-16
1
-16
-24
-15
-74
2
477
-517
476
-513
474
-511
477
-506
478
-507
478
-503
476
-500
474
-496
457
-489
471
-510
487
-524
496
-515
511
-501
455
-480
467
-501
486
-515
502
-524
511
-510
535
-571
555
-586
570
-594
579
-579
587
-558
534
-562
550
-576
570
-586
585
-588
587
-567
-81
3
-55
-20
-24
-30
1
-30
25
-31
56
-23
81
-3
74
-2
25
-16
1
-16
-24
-15
-74
2
-81
3
-55
-20
-24
-30
1
-30
25
-31
56
-23
81
-3
74
-2
25
-16
1
-16
-24
-15
-74
2
477
-517
476
-513
474
-511
477
-506
478
-507
478
-503
476
-500
474
-496
457
-489
471
-510
487
-524
496
-515
511
-501
455
-480
467
-501
486
-515
502
-524
511
-510
535
-571
555
-586
570
-594
579
-579
587
-558
534
-562
550
-576
570
-586
585
-588
587
-567
-81
3
-55
-20
-24
-30
1
-30
25
-31
56
-23
81
-3
74
-2
25
-16
1
-16
-24
-15
-74
2
-81
3
-55
-20
-24
-30
1
-30
25
-31
56
-23
81
-3
74
-2
25
-16
1
-16
-24
-15
-74
2
477
-517
476
-513
474
-511
477
-506
478
-507
478
-503
476
-500
474
-496
-2
-218
86
-315
168
-377
215
-303
299
-207
457
-616
567
-704
648
-772
706
-714
747
-618
-475
3
-305
-106
-132
-156
-4
-164
124
-166
304
-121
475
-3
429
-2
128
-107
1
-105
-126
-100
-429
2
93
-309
69
-277
48
-242
73
-197
-2
-218
86
-315
168
-377
215
-303
299
-207
457
-616
567
-704
648
-772
706
-714
747
-618
-475
3
-305
-106
-132
-156
-4
-164
124
-166
304
-121
475
-3
429
-2
128
-107
1
-105
-126
-100
-429
2
93
-309
69
-277
48
-242
73
-197
-2
-218
86
-315
168
-377
215
-303
299
-207
457
-616
567
-704
648
-772
706
-714
747
-618
-475
3
-305
-106
-132
-156
-4
-164
124
-166
304
-121
475
-3
429
-2
128
-107
1
-105
-126
-100
-429
2
93
-309
69
-277
48
-242
73
-197
18
-40
27
-54
38
-64
44
-57
53
-49
71
-97
85
-106
95
-111
101
-103
106
-90
-56
1
-38
-13
-16
-20
1
-21
17
-21
38
-16
56
-1
50
-1
17
-11
1
-11
-16
-10
-50
1
32
-59
30
-57
29
-54
31
-51
-2
-218
86
-315
168
-377
215
-303
299
-207
457
-616
567
-704
648
-772
706
-714
747
-618
-475
3
-305
-106
-132
-156
-4
-164
124
-166
304
-121
475
-3
429
-2
128
-107
1
-105
-126
-100
-429
2
93
-309
69
-277
48
-242
73
-197
18
-40
27
-54
38
-64
44
-57
53
-49
71
-97
85
-106
95
-111
101
-103
106
-90
-56
1
-38
-13
-16
-20
1
-21
17
-21
38
-16
56
-1
50
-1
17
-11
1
-11
-16
-10
-50
1
32
-59
30
-57
29
-54
31
-51
-2
-218
86
-315
168
-377
215
-303
299
-207
457
-616
567
-704
648
-772
706
-714
747
-618
-475
3
-305
-106
-132
-156
-4
-164
124
-166
304
-121
475
-3
429
-2
128
-107
1
-105
-126
-100
-429
2
93
-309
69
-277
48
-242
73
-197
-2
-218
86
-315
168
-377
215
-303
299
-207
457
-616
567
-704
648
-772
706
-714
747
-618
-475
3
-305
-106
-132
-156
-4
-164
124
-166
304
-121
475
-3
429
-2
128
-107
1
-105
-126
-100
-429
2
93
-309
69
-277
48
-242
73
-197
-2
-218
86
-315
168
-377
215
-303
299
-207
457
-616
567
-704
648
-772
706
-714
747
-618
-475
3
-305
-106
-132
-156
-4
-164
124
-166
304
-121
475
-3
429
-2
128
-107
1
-105
-126
-100
-429
2
93
-309
69
-277
48
-242
73
-197
-2
-218
86
-315
168
-377
215
-303
299
-207
457
-616
567
-704
648
-772
706
-714
747
-618
-475
3
-305
-106
-132
-156
-4
-164
124
-166
304
-121
475
-3
429
-2
128
-107
1
-105
-126
-100
-429
2
93
-309
69
-277
48
-242
73
-197
-2
-218
86
-315
168
-377
215
-303
299
-207
457
-616
567
-704
648
-772
706
-714
747
-618
-475
3
-305
-106
-132
-156
-4
-164
124
-166
304
-121
475
-3
429
-2
128
-107
1
-105
-126
-100
-429
2
93
-309
69
-277
48
-242
73
-197
-2
-218
86
-315
168
-377
215
-303
299
-207
457
-616
567
-704
648
-772
706
-714
747
-618
-475
3
-305
-106
-132
-156
-4
-164
124
-166
304
-121
475
-3
429
-2
128
-107
1
-105
-126
-100
-429
2
93
-309
69
-277
48
-242
73
-197
-2
-218
86
-315
168
-377
215
-303
299
-207
457
-616
567
-704
648
-772
706
-714
747
-618
-475
3
-305
-106
-132
-156
-4
-164
124
-166
304
-121
475
-3
429
-2
128
-107
1
-105
-126
-100
-429
2
93
-309
69
-277
48
-242
73
-197
-2
-218
86
-315
168
-377
215
-303
299
-207
457
-616
567
-704
648
-772
706
-714
747
-618
-475
3
-305
-106
-132
-156
-4
-164
124
-166
304
-121
475
-3
429
-2
128
-107
1
-105
-126
-100
-429
2
93
-309
69
-277
48
-242
73
-197
-2
-218
86
-315
168
-377
215
-303
299
-207
457
-616
567
-704
648
-772
706
-714
747
-618
-475
3
-305
-106
-132
-156
-4
-164
124
-166
304
-121
475
-3
429
-2
128
-107
1
-105
-126
-100
-429
2
93
-309
69
-277
48
-242
73
-197
-2
-218
86
-315
168
-377
215
-303
299
-207
457
-616
567
-704
648
-772
706
-714
747
-618
-475
3
-305
-106
-132
-156
-4
-164
124
-166
304
-121
475
-3
429
-2
128
-107
1
-105
-126
-100
-429
2
93
-309
69
-277
48
-242
73
-197
-2
-218
86
-315
168
-377
215
-303
299
-207
457
-616
567
-704
648
-772
706
-714
747
-618
-475
3
-305
-106
-132
-156
-4
-164
124
-166
304
-121
475
-3
429
-2
128
-107
1
-105
-126
-100
-429
2
93
-309
69
-277
48
-242
73
-197
-2
-218
86
-315
168
-377
215
-303
299
-207
457
-616
567
-704
648
-772
706
-714
747
-618
-475
3
-305
-106
-132
-156
-4
-164
124
-166
304
-121
475
-3
429
-2
128
-107
1
-105
-126
-100
-429
2
93
-309
69
-277
48
-242
73
-197
18
-40
27
-54
38
-64
44
-57
53
-49
71
-97
85
-106
95
-111
101
-103
106
-90
-56
1
-38
-13
-16
-20
1
-21
17
-21
38
-16
56
-1
50
-1
17
-11
1
-11
-16
-10
-50
1
32
-59
30
-57
29
-54
31
-51
18
-40
27
-54
38
-64
44
-57
53
-49
71
-97
85
-106
95
-111
101
-103
106
-90
-56
1
-38
-13
-16
-20
1
-21
17
-21
38
-16
56
-1
50
-1
17
-11
1
-11
-16
-10
-50
1
32
-59
30
-57
29
-54
31
-51
18
-40
27
-54
38
-64
44
-57
53
-49
71
-97
85
-106
95
-111
101
-103
106
-90
-56
1
-38
-13
-16
-20
1
-21
17
-21
38
-16
56
-1
50
-1
17
-11
1
-11
-16
-10
-50
1
32
-59
30
-57
29
-54
31
-51
18
-40
27
-54
38
-64
44
-57
53
-49
71
-97
85
-106
95
-111
101
-103
106
-90
-56
1
-38
-13
-16
-20
1
-21
17
-21
38
-16
56
-1
50
-1
17
-11
1
-11
-16
-10
-50
1
32
-59
30
-57
29
-54
31
-51
457
-489
471
-510
487
-524
496
-515
511
-501
455
-480
467
-501
486
-515
502
-524
511
-510
535
-571
555
-586
570
-594
579
-579
587
-558
534
-562
550
-576
570
-586
585
-588
587
-567
-81
3
-55
-20
-24
-30
1
-30
25
-31
56
-23
81
-3
74
-2
25
-16
1
-16
-24
-15
-74
2
-81
3
-55
-20
-24
-30
1
-30
25
-31
56
-23
81
-3
74
-2
25
-16
1
-16
-24
-15
-74
2
477
-517
476
-513
474
-511
477
-506
478
-507
478
-503
476
-500
474
-496
-2
-218
86
-315
168
-377
215
-303
299
-207
457
-616
567
-704
648
-772
706
-714
747
-618
-475
3
-305
-106
-132
-156
-4
-164
124
-166
304
-121
475
-3
429
-2
128
-107
1
-105
-126
-100
-429
2
93
-309
69
-277
48
-242
73
-197
18
-40
27
-54
38
-64
44
-57
53
-49
71
-97
85
-106
95
-111
101
-103
106
-90
-56
1
-38
-13
-16
-20
1
-21
17
-21
38
-16
56
-1
50
-1
17
-11
1
-11
-16
-10
-50
1
32
-59
30
-57
29
-54
31
-51
-2
-218
86
-315
168
-377
215
-303
299
-207
457
-616
567
-704
648
-772
706
-714
747
-618
-475
3
-305
-106
-132
-156
-4
-164
124
-166
304
-121
475
-3
429
-2
128
-107
1
-105
-126
-100
-429
2
93
-309
69
-277
48
-242
73
-197
-2
-218
86
-315
168
-377
215
-303
299
-207
457
-616
567
-704
648
-772
706
-714
747
-618
-475
3
-305
-106
-132
-156
-4
-164
124
-166
304
-121
475
-3
429
-2
128
-107
1
-105
-126
-100
-429
2
93
-309
69
-277
48
-242
73
-197
-2
-218
86
-315
168
-377
215
-303
299
-207
457
-616
567
-704
648
-772
706
-714
747
-618
-475
3
-305
-106
-132
-156
-4
-164
124
-166
304
-121
475
-3
429
-2
128
-107
1
-105
-126
-100
-429
2
93
-309
69
-277
48
-242
73
-197
-2
-218
86
-315
168
-377
215
-303
299
-207
-18
-161
69
-259
172
-318
253
-363
293
-266
-104
-262
-95
-42
34
-52
47
-57
58
-61
457
-616
567
-704
648
-772
706
-714
747
-618
458
-559
531
-649
647
-716
724
-766
761
-674
-49
-680
-43
-94
91
-100
104
-103
110
-101
-475
3
-305
-106
-132
-156
-4
-164
124
-166
304
-121
475
-3
429
-2
128
-107
1
-105
-126
-100
-429
2
-475
3
-305
-106
-132
-156
-4
-164
124
-166
304
-121
475
-3
429
-2
128
-107
1
-105
-126
-100
-429
2
-56
1
-38
-13
-16
-20
1
-21
17
-21
38
-16
56
-1
50
-1
17
-11
1
-11
-16
-10
-50
1
93
-309
69
-277
48
-242
73
-197
95
-252
94
-216
72
-187
49
-150
-377
-609
-350
-43
32
-40
30
-37
-2
-218
86
-315
168
-377
215
-303
299
-207
-18
-161
69
-259
172
-318
253
-363
293
-266
-104
-262
-95
-42
34
-52
47
-57
58
-61
101
2
171
-33
257
-205
240
-248
335
-267
-72
-381
-104
-329
-88
-274
-75
-45
54
-49
21
-46
28
-60
34
-58
43
-51
53
-43
457
-616
567
-704
648
-772
706
-714
747
-618
458
-559
531
-649
647
-716
724
-766
761
-674
-49
-680
-43
-94
91
-100
104
-103
110
-101
583
-42
656
-69
736
-604
687
-655
778
-670
-17
-788
-25
-739
-29
-683
-24
-91
106
-90
75
-103
85
-111
92
-106
100
-97
106
-84
-475
3
-305
-106
-132
-156
-4
-164
124
-166
304
-121
475
-3
429
-2
128
-107
1
-105
-126
-100
-429
2
-475
3
-305
-106
-132
-156
-4
-164
124
-166
304
-121
475
-3
429
-2
128
-107
1
-105
-126
-100
-429
2
-56
1
-38
-13
-16
-20
1
-21
17
-21
38
-16
56
-1
50
-1
17
-11
1
-11
-16
-10
-50
1
-475
3
-305
-106
-132
-156
-4
-164
124
-166
304
-121
475
-3
429
-2
128
-107
1
-105
-126
-100
-429
2
-56
1
-38
-13
-16
-20
1
-21
17
-21
38
-16
56
-1
50
-1
17
-11
1
-11
-16
-10
-50
1
-56
1
-38
-13
-16
-20
1
-21
17
-21
38
-16
56
-1
50
-1
17
-11
1
-11
-16
-10
-50
1
93
-309
69
-277
48
-242
73
-197
95
-252
94
-216
72
-187
49
-150
-377
-609
-350
-43
32
-40
30
-37
474
64
477
150
481
-69
98
-34
-377
-507
-401
-553
-377
-590
-350
-23
32
-59
30
-57
29
-54
31
-51
18
-40
27
-54
38
-64
44
-57
53
-49
71
-97
85
-106
95
-111
101
-103
106
-90
-56
1
-38
-13
-16
-20
1
-21
17
-21
38
-16
56
-1
50
-1
17
-11
1
-11
-16
-10
-50
1
32
-59
30
-57
29
-54
31
-51
18
-40
27
-54
38
-64
44
-57
53
-49
17
-34
24
-48
37
-58
48
-63
54
-55
71
-97
85
-106
95
-111
101
-103
106
-90
71
-91
81
-100
95
-106
104
-108
107
-96
-56
1
-38
-13
-16
-20
1
-21
17
-21
38
-16
56
-1
50
-1
17
-11
1
-11
-16
-10
-50
1
-56
1
-38
-13
-16
-20
1
-21
17
-21
38
-16
56
-1
50
-1
17
-11
1
-11
-16
-10
-50
1
32
-59
30
-57
29
-54
31
-51
32
-52
32
-50
30
-47
29
-44
-2
-218
86
-315
168
-377
215
-303
299
-207
457
-616
567
-704
648
-772
706
-714
747
-618
-475
3
-305
-106
-132
-156
-4
-164
124
-166
304
-121
475
-3
429
-2
128
-107
1
-105
-126
-100
-429
2
93
-309
69
-277
48
-242
73
-197
-2
-218
86
-315
168
-377
215
-303
299
-207
-18
-161
69
-259
172
-318
253
-363
293
-266
-104
-262
-95
-42
34
-52
47
-57
58
-61
457
-616
567
-704
648
-772
706
-714
747
-618
458
-559
531
-649
647
-716
724
-766
761
-674
-49
-680
-43
-94
91
-100
104
-103
110
-101
-475
3
-305
-106
-132
-156
-4
-164
124
-166
304
-121
475
-3
429
-2
128
-107
1
-105
-126
-100
-429
2
-475
3
-305
-106
-132
-156
-4
-164
124
-166
304
-121
475
-3
429
-2
128
-107
1
-105
-126
-100
-429
2
-56
1
-38
-13
-16
-20
1
-21
17
-21
38
-16
56
-1
50
-1
17
-11
1
-11
-16
-10
-50
1
93
-309
69
-277
48
-242
73
-197
95
-252
94
-216
72
-187
49
-150
-377
-609
-350
-43
32
-40
30
-37
-2
-218
86
-315
168
-377
215
-303
299
-207
-18
-161
69
-259
172
-318
253
-363
293
-266
-104
-262
-95
-42
34
-52
47
-57
58
-61
101
2
171
-33
257
-205
240
-248
335
-267
-72
-381
-104
-329
-88
-274
-75
-45
54
-49
21
-46
28
-60
34
-58
43
-51
53
-43
457
-616
567
-704
648
-772
706
-714
747
-618
458
-559
531
-649
647
-716
724
-766
761
-674
-49
-680
-43
-94
91
-100
104
-103
110
-101
583
-42
656
-69
736
-604
687
-655
778
-670
-17
-788
-25
-739
-29
-683
-24
-91
106
-90
75
-103
85
-111
92
-106
100
-97
106
-84
-475
3
-305
-106
-132
-156
-4
-164
124
-166
304
-121
475
-3
429
-2
128
-107
1
-105
-126
-100
-429
2
-475
3
-305
-106
-132
-156
-4
-164
124
-166
304
-121
475
-3
429
-2
128
-107
1
-105
-126
-100
-429
2
-56
1
-38
-13
-16
-20
1
-21
17
-21
38
-16
56
-1
50
-1
17
-11
1
-11
-16
-10
-50
1
-475
3
-305
-106
-132
-156
-4
-164
124
-166
304
-121
475
-3
429
-2
128
-107
1
-105
-126
-100
-429
2
-56
1
-38
-13
-16
-20
1
-21
17
-21
38
-16
56
-1
50
-1
17
-11
1
-11
-16
-10
-50
1
-56
1
-38
-13
-16
-20
1
-21
17
-21
38
-16
56
-1
50
-1
17
-11
1
-11
-16
-10
-50
1
93
-309
69
-277
48
-242
73
-197
95
-252
94
-216
72
-187
49
-150
-377
-609
-350
-43
32
-40
30
-37
474
64
477
150
481
-69
98
-34
-377
-507
-401
-553
-377
-590
-350
-23
32
-59
30
-57
29
-54
31
-51
-2
-218
86
-315
168
-377
215
-303
299
-207
-18
-161
69
-259
172
-318
253
-363
293
-266
-104
-262
-95
-42
34
-52
47
-57
58
-61
101
2
171
-33
257
-205
240
-248
335
-267
-72
-381
-104
-329
-88
-274
-75
-45
54
-49
21
-46
28
-60
34
-58
43
-51
53
-43
101
8
175
-39
262
-48
343
-28
420
15
17
-209
-79
-274
-52
-334
-46
-392
-74
-330
-104
-262
-95
-42
34
-52
47
-57
58
-61
18
-46
23
-48
33
-46
44
-51
57
-55
457
-616
567
-704
648
-772
706
-714
747
-618
458
-559
531
-649
647
-716
724
-766
761
-674
-49
-680
-43
-94
91
-100
104
-103
110
-101
583
-42
656
-69
736
-604
687
-655
778
-670
-17
-788
-25
-739
-29
-683
-24
-91
106
-90
75
-103
85
-111
92
-106
100
-97
106
-84
582
-36
660
-75
740
-92
813
-81
867
-35
71
-620
-44
-680
2
-735
12
-788
0
-729
-49
-680
-43
-94
91
-100
104
-103
110
-101
72
-103
81
-100
91
-94
100
-97
110
-96
-475
3
-305
-106
-132
-156
-4
-164
124
-166
304
-121
475
-3
429
-2
128
-107
1
-105
-126
-100
-429
2
-475
3
-305
-106
-132
-156
-4
-164
124
-166
304
-121
475
-3
429
-2
128
-107
1
-105
-126
-100
-429
2
-56
1
-38
-13
-16
-20
1
-21
17
-21
38
-16
56
-1
50
-1
17
-11
1
-11
-16
-10
-50
1
-475
3
-305
-106
-132
-156
-4
-164
124
-166
304
-121
475
-3
429
-2
128
-107
1
-105
-126
-100
-429
2
-56
1
-38
-13
-16
-20
1
-21
17
-21
38
-16
56
-1
50
-1
17
-11
1
-11
-16
-10
-50
1
-56
1
-38
-13
-16
-20
1
-21
17
-21
38
-16
56
-1
50
-1
17
-11
1
-11
-16
-10
-50
1
-475
3
-305
-106
-132
-156
-4
-164
124
-166
304
-121
475
-3
429
-2
128
-107
1
-105
-126
-100
-429
2
-56
1
-38
-13
-16
-20
1
-21
17
-21
38
-16
56
-1
50
-1
17
-11
1
-11
-16
-10
-50
1
-56
1
-38
-13
-16
-20
1
-21
17
-21
38
-16
56
-1
50
-1
17
-11
1
-11
-16
-10
-50
1
-56
1
-38
-13
-16
-20
1
-21
17
-21
38
-16
56
-1
50
-1
17
-11
1
-11
-16
-10
-50
1
93
-309
69
-277
48
-242
73
-197
95
-252
94
-216
72
-187
49
-150
-377
-609
-350
-43
32
-40
30
-37
474
64
477
150
481
-69
98
-34
-377
-507
-401
-553
-377
-590
-350
-23
32
-59
30
-57
29
-54
31
-51
477
85
478
171
479
254
479
339
31
-80
32
-380
-352
-427
-377
-478
-401
-562
-377
-600
-350
-33
32
-30
30
-66
29
-64
31
-61
32
-23
-2
-218
86
-315
168
-377
215
-303
299
-207
-18
-161
69
-259
172
-318
253
-363
293
-266
-104
-262
-95
-42
34
-52
47
-57
58
-61
101
2
171
-33
257
-205
240
-248
335
-267
-72
-381
-104
-329
-88
-274
-75
-45
54
-49
21
-46
28
-60
34
-58
43
-51
53
-43
101
8
175
-39
262
-48
343
-28
420
15
17
-209
-79
-274
-52
-334
-46
-392
-74
-330
-104
-262
-95
-42
34
-52
47
-57
58
-61
18
-46
23
-48
33
-46
44
-51
57
-55
105
-4
172
-39
257
-36
342
-16
421
15
21
-46
28
-60
34
-58
43
-51
53
-218
-85
-266
-62
-330
-56
-393
-84
-332
-68
-271
-101
-34
24
-48
37
-58
48
-63
54
-55
17
-40
23
-42
34
-52
47
-57
58
-61
457
-616
567
-704
648
-772
706
-714
747
-618
458
-559
531
-649
647
-716
724
-766
761
-674
-49
-680
-43
-94
91
-100
104
-103
110
-101
583
-42
656
-69
736
-604
687
-655
778
-670
-17
-788
-25
-739
-29
-683
-24
-91
106
-90
75
-103
85
-111
92
-106
100
-97
106
-84
582
-36
660
-75
740
-92
813
-81
867
-35
71
-620
-44
-680
2
-735
12
-788
0
-729
-49
-680
-43
-94
91
-100
104
-103
110
-101
72
-103
81
-100
91
-94
100
-97
110
-96
586
-47
657
-75
736
-81
812
-69
867
-35
75
-103
85
-111
92
-106
100
-97
106
-613
-54
-677
-8
-735
3
-791
-6
-736
-14
-673
-53
-91
81
-100
95
-106
104
-108
107
-96
71
-97
81
-94
91
-100
104
-103
110
-101
-475
3
-305
-106
-132
-156
-4
-164
124
-166
304
-121
475
-3
429
-2
128
-107
1
-105
-126
-100
-429
2
-475
3
-305
-106
-132
-156
-4
-164
124
-166
304
-121
475
-3
429
-2
128
-107
1
-105
-126
-100
-429
2
-56
1
-38
-13
-16
-20
1
-21
17
-21
38
-16
56
-1
50
-1
17
-11
1
-11
-16
-10
-50
1
-475
3
-305
-106
-132
-156
-4
-164
124
-166
304
-121
475
-3
429
-2
128
-107
1
-105
-126
-100
-429
2
-56
1
-38
-13
-16
-20
1
-21
17
-21
38
-16
56
-1
50
-1
17
-11
1
-11
-16
-10
-50
1
-56
1
-38
-13
-16
-20
1
-21
17
-21
38
-16
56
-1
50
-1
17
-11
1
-11
-16
-10
-50
1
-475
3
-305
-106
-132
-156
-4
-164
124
-166
304
-121
475
-3
429
-2
128
-107
1
-105
-126
-100
-429
2
-56
1
-38
-13
-16
-20
1
-21
17
-21
38
-16
56
-1
50
-1
17
-11
1
-11
-16
-10
-50
1
-56
1
-38
-13
-16
-20
1
-21
17
-21
38
-16
56
-1
50
-1
17
-11
1
-11
-16
-10
-50
1
-56
1
-38
-13
-16
-20
1
-21
17
-21
38
-16
56
-1
50
-1
17
-11
1
-11
-16
-10
-50
1
-475
3
-305
-106
-132
-156
-4
-164
124
-166
304
-121
475
-3
429
-2
128
-107
1
-105
-126
-100
-429
2
-56
1
-38
-13
-16
-20
1
-21
17
-21
38
-16
56
-1
50
-1
17
-11
1
-11
-16
-10
-50
1
-56
1
-38
-13
-16
-20
1
-21
17
-21
38
-16
56
-1
50
-1
17
-11
1
-11
-16
-10
-50
1
-56
1
-38
-13
-16
-20
1
-21
17
-21
38
-16
56
-1
50
-1
17
-11
1
-11
-16
-10
-50
1
-56
1
-38
-13
-16
-20
1
-21
17
-21
38
-16
56
-1
50
-1
17
-11
1
-11
-16
-10
-50
1
93
-309
69
-277
48
-242
73
-197
95
-252
94
-216
72
-187
49
-150
-377
-609
-350
-43
32
-40
30
-37
474
64
477
150
481
-69
98
-34
-377
-507
-401
-553
-377
-590
-350
-23
32
-59
30
-57
29
-54
31
-51
477
85
478
171
479
254
479
339
31
-80
32
-380
-352
-427
-377
-478
-401
-562
-377
-600
-350
-33
32
-30
30
-66
29
-64
31
-61
32
-23
477
78
476
164
478
247
481
332
32
-52
32
-50
30
-47
29
-44
31
-80
32
-380
-352
-427
-377
-478
-401
-562
-377
-600
-350
-33
32
-30
30
-66
29
-64
31
-61
32
-23
