457
-489
471
-510
487
-524
496
-515
511
-501
455
-480
467
-501
486
-515
502
-524
511
-510
456
-489
465
-492
482
-506
501
-515
517
-519
535
-571
555
-586
570
-594
579
-579
587
-558
534
-562
550
-576
570
-586
585
-588
587
-567
534
-571
549
-567
565
-576
585
-580
593
-576
-81
3
-55
-20
-24
-30
1
-30
25
-31
56
-23
81
-3
74
-2
25
-16
1
-16
-24
-15
-74
2
-81
3
-55
-20
-24
-30
1
-30
25
-31
56
-23
81
-3
74
-2
25
-16
1
-16
-24
-15
-74
2
-81
3
-55
-20
-24
-30
1
-30
25
-31
56
-23
81
-3
74
-2
25
-16
1
-16
-24
-15
-74
2
477
-517
476
-513
474
-511
477
-506
478
-507
478
-503
476
-500
474
-496
476
-548
479
-493
478
-490
476
-485
457
-489
471
-510
487
-524
496
-515
511
-501
455
-480
467
-501
486
-515
502
-524
511
-510
456
-489
465
-492
482
-506
501
-515
517
-519
535
-571
555
-586
570
-594
579
-579
587
-558
534
-562
550
-576
570
-586
585
-588
587
-567
534
-571
549
-567
565
-576
585
-580
593
-576
-81
3
-55
-20
-24
-30
1
-30
25
-31
56
-23
81
-3
74
-2
25
-16
1
-16
-24
-15
-74
2
-81
3
-55
-20
-24
-30
1
-30
25
-31
56
-23
81
-3
74
-2
25
-16
1
-16
-24
-15
-74
2
-81
3
-55
-20
-24
-30
1
-30
25
-31
56
-23
81
-3
74
-2
25
-16
1
-16
-24
-15
-74
2
477
-517
476
-513
474
-511
477
-506
478
-507
478
-503
476
-500
474
-496
476
-548
479
-493
478
-490
476
-485
457
-489
471
-510
487
-524
496
-515
511
-501
455
-480
467
-501
486
-515
502
-524
511
-510
456
-489
465
-492
482
-506
501
-515
517
-519
535
-571
555
-586
570
-594
579
-579
587
-558
534
-562
550
-576
570
-586
585
-588
587
-567
534
-571
549
-567
565
-576
585
-580
593
-576
-81
3
-55
-20
-24
-30
1
-30
25
-31
56
-23
81
-3
74
-2
25
-16
1
-16
-24
-15
-74
2
-81
3
-55
-20
-24
-30
1
-30
25
-31
56
-23
81
-3
74
-2
25
-16
1
-16
-24
-15
-74
2
-81
3
-55
-20
-24
-30
1
-30
25
-31
56
-23
81
-3
74
-2
25
-16
1
-16
-24
-15
-74
2
477
-517
476
-513
474
-511
477
-506
478
-507
478
-503
476
-500
474
-496
476
-548
479
-493
478
-490
476
-485
457
-489
471
-510
487
-524
496
-515
511
-501
455
-480
467
-501
486
-515
502
-524
511
-510
456
-489
465
-492
482
-506
501
-515
517
-519
535
-571
555
-586
570
-594
579
-579
587
-558
534
-562
550
-576
570
-586
585
-588
587
-567
534
-571
549
-567
565
-576
585
-580
593
-576
-81
3
-55
-20
-24
-30
1
-30
25
-31
56
-23
81
-3
74
-2
25
-16
1
-16
-24
-15
-74
2
-81
3
-55
-20
-24
-30
1
-30
25
-31
56
-23
81
-3
74
-2
25
-16
1
-16
-24
-15
-74
2
-81
3
-55
-20
-24
-30
1
-30
25
-31
56
-23
81
-3
74
-2
25
-16
1
-16
-24
-15
-74
2
477
-517
476
-513
474
-511
477
-506
478
-507
478
-503
476
-500
474
-496
476
-548
479
-493
478
-490
476
-485
457
-489
471
-510
487
-524
496
-515
511
-501
455
-480
467
-501
486
-515
502
-524
511
-510
456
-489
465
-492
482
-506
501
-515
517
-519
535
-571
555
-586
570
-594
579
-579
587
-558
534
-562
550
-576
570
-586
585
-588
587
-567
534
-571
549
-567
565
-576
585
-580
593
-576
-81
3
-55
-20
-24
-30
1
-30
25
-31
56
-23
81
-3
74
-2
25
-16
1
-16
-24
-15
-74
2
-81
3
-55
-20
-24
-30
1
-30
25
-31
56
-23
81
-3
74
-2
25
-16
1
-16
-24
-15
-74
2
-81
3
-55
-20
-24
-30
1
-30
25
-31
56
-23
81
-3
74
-2
25
-16
1
-16
-24
-15
-74
2
477
-517
476
-513
474
-511
477
-506
478
-507
478
-503
476
-500
474
-496
476
-548
479
-493
478
-490
476
-485
457
-489
471
-510
487
-524
496
-515
511
-501
455
-480
467
-501
486
-515
502
-524
511
-510
456
-489
465
-492
482
-506
501
-515
517
-519
535
-571
555
-586
570
-594
579
-579
587
-558
534
-562
550
-576
570
-586
585
-588
587
-567
534
-571
549
-567
565
-576
585
-580
593
-576
-81
3
-55
-20
-24
-30
1
-30
25
-31
56
-23
81
-3
74
-2
25
-16
1
-16
-24
-15
-74
2
-81
3
-55
-20
-24
-30
1
-30
25
-31
56
-23
81
-3
74
-2
25
-16
1
-16
-24
-15
-74
2
-81
3
-55
-20
-24
-30
1
-30
25
-31
56
-23
81
-3
74
-2
25
-16
1
-16
-24
-15
-74
2
477
-517
476
-513
474
-511
477
-506
478
-507
478
-503
476
-500
474
-496
476
-548
479
-493
478
-490
476
-485
457
-489
471
-510
487
-524
496
-515
511
-501
455
-480
467
-501
486
-515
502
-524
511
-510
456
-489
465
-492
482
-506
501
-515
517
-519
535
-571
555
-586
570
-594
579
-579
587
-558
534
-562
550
-576
570
-586
585
-588
587
-567
534
-571
549
-567
565
-576
585
-580
593
-576
-81
3
-55
-20
-24
-30
1
-30
25
-31
56
-23
81
-3
74
-2
25
-16
1
-16
-24
-15
-74
2
-81
3
-55
-20
-24
-30
1
-30
25
-31
56
-23
81
-3
74
-2
25
-16
1
-16
-24
-15
-74
2
-81
3
-55
-20
-24
-30
1
-30
25
-31
56
-23
81
-3
74
-2
25
-16
1
-16
-24
-15
-74
2
477
-517
476
-513
474
-511
477
-506
478
-507
478
-503
476
-500
474
-496
476
-548
479
-493
478
-490
476
-485
457
-489
471
-510
487
-524
496
-515
511
-501
455
-480
467
-501
486
-515
502
-524
511
-510
456
-489
465
-492
482
-506
501
-515
517
-519
535
-571
555
-586
570
-594
579
-579
587
-558
534
-562
550
-576
570
-586
585
-588
587
-567
534
-571
549
-567
565
-576
585
-580
593
-576
-81
3
-55
-20
-24
-30
1
-30
25
-31
56
-23
81
-3
74
-2
25
-16
1
-16
-24
-15
-74
2
-81
3
-55
-20
-24
-30
1
-30
25
-31
56
-23
81
-3
74
-2
25
-16
1
-16
-24
-15
-74
2
-81
3
-55
-20
-24
-30
1
-30
25
-31
56
-23
81
-3
74
-2
25
-16
1
-16
-24
-15
-74
2
477
-517
476
-513
474
-511
477
-506
478
-507
478
-503
476
-500
474
-496
476
-548
479
-493
478
-490
476
-485
457
-489
471
-510
487
-524
496
-515
511
-501
455
-480
467
-501
486
-515
502
-524
511
-510
456
-489
465
-492
482
-506
501
-515
517
-519
535
-571
555
-586
570
-594
579
-579
587
-558
534
-562
550
-576
570
-586
585
-588
587
-567
534
-571
549
-567
565
-576
585
-580
593
-576
-81
3
-55
-20
-24
-30
1
-30
25
-31
56
-23
81
-3
74
-2
25
-16
1
-16
-24
-15
-74
2
-81
3
-55
-20
-24
-30
1
-30
25
-31
56
-23
81
-3
74
-2
25
-16
1
-16
-24
-15
-74
2
-81
3
-55
-20
-24
-30
1
-30
25
-31
56
-23
81
-3
74
-2
25
-16
1
-16
-24
-15
-74
2
477
-517
476
-513
474
-511
477
-506
478
-507
478
-503
476
-500
474
-496
476
-548
479
-493
478
-490
476
-485
457
-489
471
-510
487
-524
496
-515
511
-501
455
-480
467
-501
486
-515
502
-524
511
-510
456
-489
465
-492
482
-506
501
-515
517
-519
535
-571
555
-586
570
-594
579
-579
587
-558
534
-562
550
-576
570
-586
585
-588
587
-567
534
-571
549
-567
565
-576
585
-580
593
-576
-81
3
-55
-20
-24
-30
1
-30
25
-31
56
-23
81
-3
74
-2
25
-16
1
-16
-24
-15
-74
2
-81
3
-55
-20
-24
-30
1
-30
25
-31
56
-23
81
-3
74
-2
25
-16
1
-16
-24
-15
-74
2
-81
3
-55
-20
-24
-30
1
-30
25
-31
56
-23
81
-3
74
-2
25
-16
1
-16
-24
-15
-74
2
477
-517
476
-513
474
-511
477
-506
478
-507
478
-503
476
-500
474
-496
476
-548
479
-493
478
-490
476
-485
457
-489
471
-510
487
-524
496
-515
511
-501
455
-480
467
-501
486
-515
502
-524
511
-510
456
-489
465
-492
482
-506
501
-515
517
-519
-28
-542
-22
-541
-13
-46
44
-51
57
-55
535
-571
555
-586
570
-594
579
-579
587
-558
534
-562
550
-576
570
-586
585
-588
587
-567
534
-571
549
-567
565
-576
585
-580
593
-576
25
-620
35
-614
45
-94
100
-97
110
-96
-81
3
-55
-20
-24
-30
1
-30
25
-31
56
-23
81
-3
74
-2
25
-16
1
-16
-24
-15
-74
2
-81
3
-55
-20
-24
-30
1
-30
25
-31
56
-23
81
-3
74
-2
25
-16
1
-16
-24
-15
-74
2
-81
3
-55
-20
-24
-30
1
-30
25
-31
56
-23
81
-3
74
-2
25
-16
1
-16
-24
-15
-74
2
-56
1
-38
-13
-16
-20
1
-21
17
-21
38
-16
56
-1
50
-1
17
-11
1
-11
-16
-10
-50
1
477
-517
476
-513
474
-511
477
-506
478
-507
478
-503
476
-500
474
-496
476
-548
479
-493
478
-490
476
-485
-32
-582
-29
-583
-27
-33
32
-30
457
-489
471
-510
487
-524
496
-515
511
-501
455
-480
467
-501
486
-515
502
-524
511
-510
456
-489
465
-492
482
-506
501
-515
517
-519
-28
-542
-22
-541
-13
-46
44
-51
57
-55
535
-571
555
-586
570
-594
579
-579
587
-558
534
-562
550
-576
570
-586
585
-588
587
-567
534
-571
549
-567
565
-576
585
-580
593
-576
25
-620
35
-614
45
-94
100
-97
110
-96
-81
3
-55
-20
-24
-30
1
-30
25
-31
56
-23
81
-3
74
-2
25
-16
1
-16
-24
-15
-74
2
-81
3
-55
-20
-24
-30
1
-30
25
-31
56
-23
81
-3
74
-2
25
-16
1
-16
-24
-15
-74
2
-81
3
-55
-20
-24
-30
1
-30
25
-31
56
-23
81
-3
74
-2
25
-16
1
-16
-24
-15
-74
2
-56
1
-38
-13
-16
-20
1
-21
17
-21
38
-16
56
-1
50
-1
17
-11
1
-11
-16
-10
-50
1
477
-517
476
-513
474
-511
477
-506
478
-507
478
-503
476
-500
474
-496
476
-548
479
-493
478
-490
476
-485
-32
-582
-29
-583
-27
-33
32
-30
457
-489
471
-510
487
-524
496
-515
511
-501
455
-480
467
-501
486
-515
502
-524
511
-510
456
-489
465
-492
482
-506
501
-515
517
-519
-28
-542
-22
-541
-13
-46
44
-51
57
-55
535
-571
555
-586
570
-594
579
-579
587
-558
534
-562
550
-576
570
-586
585
-588
587
-567
534
-571
549
-567
565
-576
585
-580
593
-576
25
-620
35
-614
45
-94
100
-97
110
-96
-81
3
-55
-20
-24
-30
1
-30
25
-31
56
-23
81
-3
74
-2
25
-16
1
-16
-24
-15
-74
2
-81
3
-55
-20
-24
-30
1
-30
25
-31
56
-23
81
-3
74
-2
25
-16
1
-16
-24
-15
-74
2
-81
3
-55
-20
-24
-30
1
-30
25
-31
56
-23
81
-3
74
-2
25
-16
1
-16
-24
-15
-74
2
-56
1
-38
-13
-16
-20
1
-21
17
-21
38
-16
56
-1
50
-1
17
-11
1
-11
-16
-10
-50
1
477
-517
476
-513
474
-511
477
-506
478
-507
478
-503
476
-500
474
-496
476
-548
479
-493
478
-490
476
-485
-32
-582
-29
-583
-27
-33
32
-30
457
-489
471
-510
487
-524
496
-515
511
-501
455
-480
467
-501
486
-515
502
-524
511
-510
456
-489
465
-492
482
-506
501
-515
517
-519
-28
-542
-22
-541
-13
-46
44
-51
57
-55
535
-571
555
-586
570
-594
579
-579
587
-558
534
-562
550
-576
570
-586
585
-588
587
-567
534
-571
549
-567
565
-576
585
-580
593
-576
25
-620
35
-614
45
-94
100
-97
110
-96
-81
3
-55
-20
-24
-30
1
-30
25
-31
56
-23
81
-3
74
-2
25
-16
1
-16
-24
-15
-74
2
-81
3
-55
-20
-24
-30
1
-30
25
-31
56
-23
81
-3
74
-2
25
-16
1
-16
-24
-15
-74
2
-81
3
-55
-20
-24
-30
1
-30
25
-31
56
-23
81
-3
74
-2
25
-16
1
-16
-24
-15
-74
2
-56
1
-38
-13
-16
-20
1
-21
17
-21
38
-16
56
-1
50
-1
17
-11
1
-11
-16
-10
-50
1
477
-517
476
-513
474
-511
477
-506
478
-507
478
-503
476
-500
474
-496
476
-548
479
-493
478
-490
476
-485
-32
-582
-29
-583
-27
-33
32
-30
457
-489
471
-510
487
-524
496
-515
511
-501
455
-480
467
-501
486
-515
502
-524
511
-510
456
-489
465
-492
482
-506
501
-515
517
-519
-28
-542
-22
-541
-13
-46
44
-51
57
-55
535
-571
555
-586
570
-594
579
-579
587
-558
534
-562
550
-576
570
-586
585
-588
587
-567
534
-571
549
-567
565
-576
585
-580
593
-576
25
-620
35
-614
45
-94
100
-97
110
-96
-81
3
-55
-20
-24
-30
1
-30
25
-31
56
-23
81
-3
74
-2
25
-16
1
-16
-24
-15
-74
2
-81
3
-55
-20
-24
-30
1
-30
25
-31
56
-23
81
-3
74
-2
25
-16
1
-16
-24
-15
-74
2
-81
3
-55
-20
-24
-30
1
-30
25
-31
56
-23
81
-3
74
-2
25
-16
1
-16
-24
-15
-74
2
-56
1
-38
-13
-16
-20
1
-21
17
-21
38
-16
56
-1
50
-1
17
-11
1
-11
-16
-10
-50
1
477
-517
476
-513
474
-511
477
-506
478
-507
478
-503
476
-500
474
-496
476
-548
479
-493
478
-490
476
-485
-32
-582
-29
-583
-27
-33
32
-30
457
-489
471
-510
487
-524
496
-515
511
-501
455
-480
467
-501
486
-515
502
-524
511
-510
456
-489
465
-492
482
-506
501
-515
517
-519
-28
-542
-22
-541
-13
-46
44
-51
57
-55
535
-571
555
-586
570
-594
579
-579
587
-558
534
-562
550
-576
570
-586
585
-588
587
-567
534
-571
549
-567
565
-576
585
-580
593
-576
25
-620
35
-614
45
-94
100
-97
110
-96
-81
3
-55
-20
-24
-30
1
-30
25
-31
56
-23
81
-3
74
-2
25
-16
1
-16
-24
-15
-74
2
-81
3
-55
-20
-24
-30
1
-30
25
-31
56
-23
81
-3
74
-2
25
-16
1
-16
-24
-15
-74
2
-81
3
-55
-20
-24
-30
1
-30
25
-31
56
-23
81
-3
74
-2
25
-16
1
-16
-24
-15
-74
2
-56
1
-38
-13
-16
-20
1
-21
17
-21
38
-16
56
-1
50
-1
17
-11
1
-11
-16
-10
-50
1
477
-517
476
-513
474
-511
477
-506
478
-507
478
-503
476
-500
474
-496
476
-548
479
-493
478
-490
476
-485
-32
-582
-29
-583
-27
-33
32
-30
457
-489
471
-510
487
-524
496
-515
511
-501
455
-480
467
-501
486
-515
502
-524
511
-510
456
-489
465
-492
482
-506
501
-515
517
-519
-28
-542
-22
-541
-13
-46
44
-51
57
-55
535
-571
555
-586
570
-594
579
-579
587
-558
534
-562
550
-576
570
-586
585
-588
587
-567
534
-571
549
-567
565
-576
585
-580
593
-576
25
-620
35
-614
45
-94
100
-97
110
-96
-81
3
-55
-20
-24
-30
1
-30
25
-31
56
-23
81
-3
74
-2
25
-16
1
-16
-24
-15
-74
2
-81
3
-55
-20
-24
-30
1
-30
25
-31
56
-23
81
-3
74
-2
25
-16
1
-16
-24
-15
-74
2
-81
3
-55
-20
-24
-30
1
-30
25
-31
56
-23
81
-3
74
-2
25
-16
1
-16
-24
-15
-74
2
-56
1
-38
-13
-16
-20
1
-21
17
-21
38
-16
56
-1
50
-1
17
-11
1
-11
-16
-10
-50
1
477
-517
476
-513
474
-511
477
-506
478
-507
478
-503
476
-500
474
-496
476
-548
479
-493
478
-490
476
-485
-32
-582
-29
-583
-27
-33
32
-30
457
-489
471
-510
487
-524
496
-515
511
-501
455
-480
467
-501
486
-515
502
-524
511
-510
535
-571
555
-586
570
-594
579
-579
587
-558
534
-562
550
-576
570
-586
585
-588
587
-567
-81
3
-55
-20
-24
-30
1
-30
25
-31
56
-23
81
-3
74
-2
25
-16
1
-16
-24
-15
-74
2
-81
3
-55
-20
-24
-30
1
-30
25
-31
56
-23
81
-3
74
-2
25
-16
1
-16
-24
-15
-74
2
477
-517
476
-513
474
-511
477
-506
478
-507
478
-503
476
-500
474
-496
457
-489
471
-510
487
-524
496
-515
511
-501
455
-480
467
-501
486
-515
502
-524
511
-510
456
-489
465
-492
482
-506
501
-515
517
-519
-28
-542
-22
-541
-13
-46
44
-51
57
-55
535
-571
555
-586
570
-594
579
-579
587
-558
534
-562
550
-576
570
-586
585
-588
587
-567
534
-571
549
-567
565
-576
585
-580
593
-576
25
-620
35
-614
45
-94
100
-97
110
-96
-81
3
-55
-20
-24
-30
1
-30
25
-31
56
-23
81
-3
74
-2
25
-16
1
-16
-24
-15
-74
2
-81
3
-55
-20
-24
-30
1
-30
25
-31
56
-23
81
-3
74
-2
25
-16
1
-16
-24
-15
-74
2
-81
3
-55
-20
-24
-30
1
-30
25
-31
56
-23
81
-3
74
-2
25
-16
1
-16
-24
-15
-74
2
-56
1
-38
-13
-16
-20
1
-21
17
-21
38
-16
56
-1
50
-1
17
-11
1
-11
-16
-10
-50
1
477
-517
476
-513
474
-511
477
-506
478
-507
478
-503
476
-500
474
-496
476
-548
479
-493
478
-490
476
-485
-32
-582
-29
-583
-27
-33
32
-30
457
-489
471
-510
487
-524
496
-515
511
-501
455
-480
467
-501
486
-515
502
-524
511
-510
456
-489
465
-492
482
-506
501
-515
517
-519
-28
-542
-22
-541
-13
-46
44
-51
57
-55
535
-571
555
-586
570
-594
579
-579
587
-558
534
-562
550
-576
570
-586
585
-588
587
-567
534
-571
549
-567
565
-576
585
-580
593
-576
25
-620
35
-614
45
-94
100
-97
110
-96
-81
3
-55
-20
-24
-30
1
-30
25
-31
56
-23
81
-3
74
-2
25
-16
1
-16
-24
-15
-74
2
-81
3
-55
-20
-24
-30
1
-30
25
-31
56
-23
81
-3
74
-2
25
-16
1
-16
-24
-15
-74
2
-81
3
-55
-20
-24
-30
1
-30
25
-31
56
-23
81
-3
74
-2
25
-16
1
-16
-24
-15
-74
2
-56
1
-38
-13
-16
-20
1
-21
17
-21
38
-16
56
-1
50
-1
17
-11
1
-11
-16
-10
-50
1
477
-517
476
-513
474
-511
477
-506
478
-507
478
-503
476
-500
474
-496
476
-548
479
-493
478
-490
476
-485
-32
-582
-29
-583
-27
-33
32
-30
457
-489
471
-510
487
-524
496
-515
511
-501
455
-480
467
-501
486
-515
502
-524
511
-510
456
-489
465
-492
482
-506
501
-515
517
-519
-28
-542
-22
-541
-13
-46
44
-51
57
-55
535
-571
555
-586
570
-594
579
-579
587
-558
534
-562
550
-576
570
-586
585
-588
587
-567
534
-571
549
-567
565
-576
585
-580
593
-576
25
-620
35
-614
45
-94
100
-97
110
-96
-81
3
-55
-20
-24
-30
1
-30
25
-31
56
-23
81
-3
74
-2
25
-16
1
-16
-24
-15
-74
2
-81
3
-55
-20
-24
-30
1
-30
25
-31
56
-23
81
-3
74
-2
25
-16
1
-16
-24
-15
-74
2
-81
3
-55
-20
-24
-30
1
-30
25
-31
56
-23
81
-3
74
-2
25
-16
1
-16
-24
-15
-74
2
-56
1
-38
-13
-16
-20
1
-21
17
-21
38
-16
56
-1
50
-1
17
-11
1
-11
-16
-10
-50
1
477
-517
476
-513
474
-511
477
-506
478
-507
478
-503
476
-500
474
-496
476
-548
479
-493
478
-490
476
-485
-32
-582
-29
-583
-27
-33
32
-30
457
-489
471
-510
487
-524
496
-515
511
-501
455
-480
467
-501
486
-515
502
-524
511
-510
456
-489
465
-492
482
-506
501
-515
517
-519
-28
-542
-22
-541
-13
-46
44
-51
57
-55
535
-571
555
-586
570
-594
579
-579
587
-558
534
-562
550
-576
570
-586
585
-588
587
-567
534
-571
549
-567
565
-576
585
-580
593
-576
25
-620
35
-614
45
-94
100
-97
110
-96
-81
3
-55
-20
-24
-30
1
-30
25
-31
56
-23
81
-3
74
-2
25
-16
1
-16
-24
-15
-74
2
-81
3
-55
-20
-24
-30
1
-30
25
-31
56
-23
81
-3
74
-2
25
-16
1
-16
-24
-15
-74
2
-81
3
-55
-20
-24
-30
1
-30
25
-31
56
-23
81
-3
74
-2
25
-16
1
-16
-24
-15
-74
2
-56
1
-38
-13
-16
-20
1
-21
17
-21
38
-16
56
-1
50
-1
17
-11
1
-11
-16
-10
-50
1
477
-517
476
-513
474
-511
477
-506
478
-507
478
-503
476
-500
474
-496
476
-548
479
-493
478
-490
476
-485
-32
-582
-29
-583
-27
-33
32
-30
457
-489
471
-510
487
-524
496
-515
511
-501
455
-480
467
-501
486
-515
502
-524
511
-510
456
-489
465
-492
482
-506
501
-515
517
-519
-28
-542
-22
-541
-13
-46
44
-51
57
-55
535
-571
555
-586
570
-594
579
-579
587
-558
534
-562
550
-576
570
-586
585
-588
587
-567
534
-571
549
-567
565
-576
585
-580
593
-576
25
-620
35
-614
45
-94
100
-97
110
-96
-81
3
-55
-20
-24
-30
1
-30
25
-31
56
-23
81
-3
74
-2
25
-16
1
-16
-24
-15
-74
2
-81
3
-55
-20
-24
-30
1
-30
25
-31
56
-23
81
-3
74
-2
25
-16
1
-16
-24
-15
-74
2
-81
3
-55
-20
-24
-30
1
-30
25
-31
56
-23
81
-3
74
-2
25
-16
1
-16
-24
-15
-74
2
-56
1
-38
-13
-16
-20
1
-21
17
-21
38
-16
56
-1
50
-1
17
-11
1
-11
-16
-10
-50
1
477
-517
476
-513
474
-511
477
-506
478
-507
478
-503
476
-500
474
-496
476
-548
479
-493
478
-490
476
-485
-32
-582
-29
-583
-27
-33
32
-30
457
-489
471
-510
487
-524
496
-515
511
-501
455
-480
467
-501
486
-515
502
-524
511
-510
456
-489
465
-492
482
-506
501
-515
517
-519
-28
-542
-22
-541
-13
-46
44
-51
57
-55
535
-571
555
-586
570
-594
579
-579
587
-558
534
-562
550
-576
570
-586
585
-588
587
-567
534
-571
549
-567
565
-576
585
-580
593
-576
25
-620
35
-614
45
-94
100
-97
110
-96
-81
3
-55
-20
-24
-30
1
-30
25
-31
56
-23
81
-3
74
-2
25
-16
1
-16
-24
-15
-74
2
-81
3
-55
-20
-24
-30
1
-30
25
-31
56
-23
81
-3
74
-2
25
-16
1
-16
-24
-15
-74
2
-81
3
-55
-20
-24
-30
1
-30
25
-31
56
-23
81
-3
74
-2
25
-16
1
-16
-24
-15
-74
2
-56
1
-38
-13
-16
-20
1
-21
17
-21
38
-16
56
-1
50
-1
17
-11
1
-11
-16
-10
-50
1
477
-517
476
-513
474
-511
477
-506
478
-507
478
-503
476
-500
474
-496
476
-548
479
-493
478
-490
476
-485
-32
-582
-29
-583
-27
-33
32
-30
457
-489
471
-510
487
-524
496
-515
511
-501
455
-480
467
-501
486
-515
502
-524
511
-510
456
-489
465
-492
482
-506
501
-515
517
-519
-28
-542
-22
-541
-13
-46
44
-51
57
-55
535
-571
555
-586
570
-594
579
-579
587
-558
534
-562
550
-576
570
-586
585
-588
587
-567
534
-571
549
-567
565
-576
585
-580
593
-576
25
-620
35
-614
45
-94
100
-97
110
-96
-81
3
-55
-20
-24
-30
1
-30
25
-31
56
-23
81
-3
74
-2
25
-16
1
-16
-24
-15
-74
2
-81
3
-55
-20
-24
-30
1
-30
25
-31
56
-23
81
-3
74
-2
25
-16
1
-16
-24
-15
-74
2
-81
3
-55
-20
-24
-30
1
-30
25
-31
56
-23
81
-3
74
-2
25
-16
1
-16
-24
-15
-74
2
-56
1
-38
-13
-16
-20
1
-21
17
-21
38
-16
56
-1
50
-1
17
-11
1
-11
-16
-10
-50
1
477
-517
476
-513
474
-511
477
-506
478
-507
478
-503
476
-500
474
-496
476
-548
479
-493
478
-490
476
-485
-32
-582
-29
-583
-27
-33
32
-30
457
-489
471
-510
487
-524
496
-515
511
-501
455
-480
467
-501
486
-515
502
-524
511
-510
456
-489
465
-492
482
-506
501
-515
517
-519
-28
-542
-22
-541
-13
-46
44
-51
57
-55
535
-571
555
-586
570
-594
579
-579
587
-558
534
-562
550
-576
570
-586
585
-588
587
-567
534
-571
549
-567
565
-576
585
-580
593
-576
25
-620
35
-614
45
-94
100
-97
110
-96
-81
3
-55
-20
-24
-30
1
-30
25
-31
56
-23
81
-3
74
-2
25
-16
1
-16
-24
-15
-74
2
-81
3
-55
-20
-24
-30
1
-30
25
-31
56
-23
81
-3
74
-2
25
-16
1
-16
-24
-15
-74
2
-81
3
-55
-20
-24
-30
1
-30
25
-31
56
-23
81
-3
74
-2
25
-16
1
-16
-24
-15
-74
2
-56
1
-38
-13
-16
-20
1
-21
17
-21
38
-16
56
-1
50
-1
17
-11
1
-11
-16
-10
-50
1
477
-517
476
-513
474
-511
477
-506
478
-507
478
-503
476
-500
474
-496
476
-548
479
-493
478
-490
476
-485
-32
-582
-29
-583
-27
-33
32
-30
457
-489
471
-510
487
-524
496
-515
511
-501
455
-480
467
-501
486
-515
502
-524
511
-510
456
-489
465
-492
482
-506
501
-515
517
-519
-28
-542
-22
-541
-13
-46
44
-51
57
-55
535
-571
555
-586
570
-594
579
-579
587
-558
534
-562
550
-576
570
-586
585
-588
587
-567
534
-571
549
-567
565
-576
585
-580
593
-576
25
-620
35
-614
45
-94
100
-97
110
-96
-81
3
-55
-20
-24
-30
1
-30
25
-31
56
-23
81
-3
74
-2
25
-16
1
-16
-24
-15
-74
2
-81
3
-55
-20
-24
-30
1
-30
25
-31
56
-23
81
-3
74
-2
25
-16
1
-16
-24
-15
-74
2
-81
3
-55
-20
-24
-30
1
-30
25
-31
56
-23
81
-3
74
-2
25
-16
1
-16
-24
-15
-74
2
-56
1
-38
-13
-16
-20
1
-21
17
-21
38
-16
56
-1
50
-1
17
-11
1
-11
-16
-10
-50
1
477
-517
476
-513
474
-511
477
-506
478
-507
478
-503
476
-500
474
-496
476
-548
479
-493
478
-490
476
-485
-32
-582
-29
-583
-27
-33
32
-30
457
-489
471
-510
487
-524
496
-515
511
-501
455
-480
467
-501
486
-515
502
-524
511
-510
456
-489
465
-492
482
-506
501
-515
517
-519
-28
-542
-22
-541
-13
-46
44
-51
57
-55
535
-571
555
-586
570
-594
579
-579
587
-558
534
-562
550
-576
570
-586
585
-588
587
-567
534
-571
549
-567
565
-576
585
-580
593
-576
25
-620
35
-614
45
-94
100
-97
110
-96
-81
3
-55
-20
-24
-30
1
-30
25
-31
56
-23
81
-3
74
-2
25
-16
1
-16
-24
-15
-74
2
-81
3
-55
-20
-24
-30
1
-30
25
-31
56
-23
81
-3
74
-2
25
-16
1
-16
-24
-15
-74
2
-81
3
-55
-20
-24
-30
1
-30
25
-31
56
-23
81
-3
74
-2
25
-16
1
-16
-24
-15
-74
2
-56
1
-38
-13
-16
-20
1
-21
17
-21
38
-16
56
-1
50
-1
17
-11
1
-11
-16
-10
-50
1
477
-517
476
-513
474
-511
477
-506
478
-507
478
-503
476
-500
474
-496
476
-548
479
-493
478
-490
476
-485
-32
-582
-29
-583
-27
-33
32
-30
457
-489
471
-510
487
-524
496
-515
511
-501
455
-480
467
-501
486
-515
502
-524
511
-510
456
-489
465
-492
482
-506
501
-515
517
-519
-28
-542
-22
-541
-13
-46
44
-51
57
-55
535
-571
555
-586
570
-594
579
-579
587
-558
534
-562
550
-576
570
-586
585
-588
587
-567
534
-571
549
-567
565
-576
585
-580
593
-576
25
-620
35
-614
45
-94
100
-97
110
-96
-81
3
-55
-20
-24
-30
1
-30
25
-31
56
-23
81
-3
74
-2
25
-16
1
-16
-24
-15
-74
2
-81
3
-55
-20
-24
-30
1
-30
25
-31
56
-23
81
-3
74
-2
25
-16
1
-16
-24
-15
-74
2
-81
3
-55
-20
-24
-30
1
-30
25
-31
56
-23
81
-3
74
-2
25
-16
1
-16
-24
-15
-74
2
-56
1
-38
-13
-16
-20
1
-21
17
-21
38
-16
56
-1
50
-1
17
-11
1
-11
-16
-10
-50
1
477
-517
476
-513
474
-511
477
-506
478
-507
478
-503
476
-500
474
-496
476
-548
479
-493
478
-490
476
-485
-32
-582
-29
-583
-27
-33
32
-30
457
-489
471
-510
487
-524
496
-515
511
-501
455
-480
467
-501
486
-515
502
-524
511
-510
456
-489
465
-492
482
-506
501
-515
517
-519
-28
-542
-22
-541
-13
-46
44
-51
57
-55
535
-571
555
-586
570
-594
579
-579
587
-558
534
-562
550
-576
570
-586
585
-588
587
-567
534
-571
549
-567
565
-576
585
-580
593
-576
25
-620
35
-614
45
-94
100
-97
110
-96
-81
3
-55
-20
-24
-30
1
-30
25
-31
56
-23
81
-3
74
-2
25
-16
1
-16
-24
-15
-74
2
-81
3
-55
-20
-24
-30
1
-30
25
-31
56
-23
81
-3
74
-2
25
-16
1
-16
-24
-15
-74
2
-81
3
-55
-20
-24
-30
1
-30
25
-31
56
-23
81
-3
74
-2
25
-16
1
-16
-24
-15
-74
2
-56
1
-38
-13
-16
-20
1
-21
17
-21
38
-16
56
-1
50
-1
17
-11
1
-11
-16
-10
-50
1
477
-517
476
-513
474
-511
477
-506
478
-507
478
-503
476
-500
474
-496
476
-548
479
-493
478
-490
476
-485
-32
-582
-29
-583
-27
-33
32
-30
457
-489
471
-510
487
-524
496
-515
511
-501
455
-480
467
-501
486
-515
502
-524
511
-510
456
-489
465
-492
482
-506
501
-515
517
-519
-28
-542
-22
-541
-13
-46
44
-51
57
-55
535
-571
555
-586
570
-594
579
-579
587
-558
534
-562
550
-576
570
-586
585
-588
587
-567
534
-571
549
-567
565
-576
585
-580
593
-576
25
-620
35
-614
45
-94
100
-97
110
-96
-81
3
-55
-20
-24
-30
1
-30
25
-31
56
-23
81
-3
74
-2
25
-16
1
-16
-24
-15
-74
2
-81
3
-55
-20
-24
-30
1
-30
25
-31
56
-23
81
-3
74
-2
25
-16
1
-16
-24
-15
-74
2
-81
3
-55
-20
-24
-30
1
-30
25
-31
56
-23
81
-3
74
-2
25
-16
1
-16
-24
-15
-74
2
-56
1
-38
-13
-16
-20
1
-21
17
-21
38
-16
56
-1
50
-1
17
-11
1
-11
-16
-10
-50
1
477
-517
476
-513
474
-511
477
-506
478
-507
478
-503
476
-500
474
-496
476
-548
479
-493
478
-490
476
-485
-32
-582
-29
-583
-27
-33
32
-30
457
-489
471
-510
487
-524
496
-515
511
-501
455
-480
467
-501
486
-515
502
-524
511
-510
456
-489
465
-492
482
-506
501
-515
517
-519
-28
-542
-22
-541
-13
-46
44
-51
57
-55
535
-571
555
-586
570
-594
579
-579
587
-558
534
-562
550
-576
570
-586
585
-588
587
-567
534
-571
549
-567
565
-576
585
-580
593
-576
25
-620
35
-614
45
-94
100
-97
110
-96
-81
3
-55
-20
-24
-30
1
-30
25
-31
56
-23
81
-3
74
-2
25
-16
1
-16
-24
-15
-74
2
-81
3
-55
-20
-24
-30
1
-30
25
-31
56
-23
81
-3
74
-2
25
-16
1
-16
-24
-15
-74
2
-81
3
-55
-20
-24
-30
1
-30
25
-31
56
-23
81
-3
74
-2
25
-16
1
-16
-24
-15
-74
2
-56
1
-38
-13
-16
-20
1
-21
17
-21
38
-16
56
-1
50
-1
17
-11
1
-11
-16
-10
-50
1
477
-517
476
-513
474
-511
477
-506
478
-507
478
-503
476
-500
474
-496
476
-548
479
-493
478
-490
476
-485
-32
-582
-29
-583
-27
-33
32
-30
457
-489
471
-510
487
-524
496
-515
511
-501
455
-480
467
-501
486
-515
502
-524
511
-510
456
-489
465
-492
482
-506
501
-515
517
-519
-28
-542
-22
-541
-13
-46
44
-51
57
-55
535
-571
555
-586
570
-594
579
-579
587
-558
534
-562
550
-576
570
-586
585
-588
587
-567
534
-571
549
-567
565
-576
585
-580
593
-576
25
-620
35
-614
45
-94
100
-97
110
-96
-81
3
-55
-20
-24
-30
1
-30
25
-31
56
-23
81
-3
74
-2
25
-16
1
-16
-24
-15
-74
2
-81
3
-55
-20
-24
-30
1
-30
25
-31
56
-23
81
-3
74
-2
25
-16
1
-16
-24
-15
-74
2
-81
3
-55
-20
-24
-30
1
-30
25
-31
56
-23
81
-3
74
-2
25
-16
1
-16
-24
-15
-74
2
-56
1
-38
-13
-16
-20
1
-21
17
-21
38
-16
56
-1
50
-1
17
-11
1
-11
-16
-10
-50
1
477
-517
476
-513
474
-511
477
-506
478
-507
478
-503
476
-500
474
-496
476
-548
479
-493
478
-490
476
-485
-32
-582
-29
-583
-27
-33
32
-30
457
-489
471
-510
487
-524
496
-515
511
-501
455
-480
467
-501
486
-515
502
-524
511
-510
456
-489
465
-492
482
-506
501
-515
517
-519
-28
-542
-22
-541
-13
-46
44
-51
57
-55
535
-571
555
-586
570
-594
579
-579
587
-558
534
-562
550
-576
570
-586
585
-588
587
-567
534
-571
549
-567
565
-576
585
-580
593
-576
25
-620
35
-614
45
-94
100
-97
110
-96
-81
3
-55
-20
-24
-30
1
-30
25
-31
56
-23
81
-3
74
-2
25
-16
1
-16
-24
-15
-74
2
-81
3
-55
-20
-24
-30
1
-30
25
-31
56
-23
81
-3
74
-2
25
-16
1
-16
-24
-15
-74
2
-81
3
-55
-20
-24
-30
1
-30
25
-31
56
-23
81
-3
74
-2
25
-16
1
-16
-24
-15
-74
2
-56
1
-38
-13
-16
-20
1
-21
17
-21
38
-16
56
-1
50
-1
17
-11
1
-11
-16
-10
-50
1
477
-517
476
-513
474
-511
477
-506
478
-507
478
-503
476
-500
474
-496
476
-548
479
-493
478
-490
476
-485
-32
-582
-29
-583
-27
-33
32
-30
457
-489
471
-510
487
-524
496
-515
511
-501
455
-480
467
-501
486
-515
502
-524
511
-510
456
-489
465
-492
482
-506
501
-515
517
-519
-28
-542
-22
-541
-13
-46
44
-51
57
-55
535
-571
555
-586
570
-594
579
-579
587
-558
534
-562
550
-576
570
-586
585
-588
587
-567
534
-571
549
-567
565
-576
585
-580
593
-576
25
-620
35
-614
45
-94
100
-97
110
-96
-81
3
-55
-20
-24
-30
1
-30
25
-31
56
-23
81
-3
74
-2
25
-16
1
-16
-24
-15
-74
2
-81
3
-55
-20
-24
-30
1
-30
25
-31
56
-23
81
-3
74
-2
25
-16
1
-16
-24
-15
-74
2
-81
3
-55
-20
-24
-30
1
-30
25
-31
56
-23
81
-3
74
-2
25
-16
1
-16
-24
-15
-74
2
-56
1
-38
-13
-16
-20
1
-21
17
-21
38
-16
56
-1
50
-1
17
-11
1
-11
-16
-10
-50
1
477
-517
476
-513
474
-511
477
-506
478
-507
478
-503
476
-500
474
-496
476
-548
479
-493
478
-490
476
-485
-32
-582
-29
-583
-27
-33
32
-30
457
-489
471
-510
487
-524
496
-515
511
-501
455
-480
467
-501
486
-515
502
-524
511
-510
456
-489
465
-492
482
-506
501
-515
517
-519
-28
-542
-22
-541
-13
-46
44
-51
57
-55
535
-571
555
-586
570
-594
579
-579
587
-558
534
-562
550
-576
570
-586
585
-588
587
-567
534
-571
549
-567
565
-576
585
-580
593
-576
25
-620
35
-614
45
-94
100
-97
110
-96
-81
3
-55
-20
-24
-30
1
-30
25
-31
56
-23
81
-3
74
-2
25
-16
1
-16
-24
-15
-74
2
-81
3
-55
-20
-24
-30
1
-30
25
-31
56
-23
81
-3
74
-2
25
-16
1
-16
-24
-15
-74
2
-81
3
-55
-20
-24
-30
1
-30
25
-31
56
-23
81
-3
74
-2
25
-16
1
-16
-24
-15
-74
2
-56
1
-38
-13
-16
-20
1
-21
17
-21
38
-16
56
-1
50
-1
17
-11
1
-11
-16
-10
-50
1
477
-517
476
-513
474
-511
477
-506
478
-507
478
-503
476
-500
474
-496
476
-548
479
-493
478
-490
476
-485
-32
-582
-29
-583
-27
-33
32
-30
457
-489
471
-510
487
-524
496
-515
511
-501
455
-480
467
-501
486
-515
502
-524
511
-510
456
-489
465
-492
482
-506
501
-515
517
-519
-28
-542
-22
-541
-13
-46
44
-51
57
-55
535
-571
555
-586
570
-594
579
-579
587
-558
534
-562
550
-576
570
-586
585
-588
587
-567
534
-571
549
-567
565
-576
585
-580
593
-576
25
-620
35
-614
45
-94
100
-97
110
-96
-81
3
-55
-20
-24
-30
1
-30
25
-31
56
-23
81
-3
74
-2
25
-16
1
-16
-24
-15
-74
2
-81
3
-55
-20
-24
-30
1
-30
25
-31
56
-23
81
-3
74
-2
25
-16
1
-16
-24
-15
-74
2
-81
3
-55
-20
-24
-30
1
-30
25
-31
56
-23
81
-3
74
-2
25
-16
1
-16
-24
-15
-74
2
-56
1
-38
-13
-16
-20
1
-21
17
-21
38
-16
56
-1
50
-1
17
-11
1
-11
-16
-10
-50
1
477
-517
476
-513
474
-511
477
-506
478
-507
478
-503
476
-500
474
-496
476
-548
479
-493
478
-490
476
-485
-32
-582
-29
-583
-27
-33
32
-30
457
-489
471
-510
487
-524
496
-515
511
-501
455
-480
467
-501
486
-515
502
-524
511
-510
456
-489
465
-492
482
-506
501
-515
517
-519
-28
-542
-22
-541
-13
-46
44
-51
57
-55
535
-571
555
-586
570
-594
579
-579
587
-558
534
-562
550
-576
570
-586
585
-588
587
-567
534
-571
549
-567
565
-576
585
-580
593
-576
25
-620
35
-614
45
-94
100
-97
110
-96
-81
3
-55
-20
-24
-30
1
-30
25
-31
56
-23
81
-3
74
-2
25
-16
1
-16
-24
-15
-74
2
-81
3
-55
-20
-24
-30
1
-30
25
-31
56
-23
81
-3
74
-2
25
-16
1
-16
-24
-15
-74
2
-81
3
-55
-20
-24
-30
1
-30
25
-31
56
-23
81
-3
74
-2
25
-16
1
-16
-24
-15
-74
2
-56
1
-38
-13
-16
-20
1
-21
17
-21
38
-16
56
-1
50
-1
17
-11
1
-11
-16
-10
-50
1
477
-517
476
-513
474
-511
477
-506
478
-507
478
-503
476
-500
474
-496
476
-548
479
-493
478
-490
476
-485
-32
-582
-29
-583
-27
-33
32
-30
457
-489
471
-510
487
-524
496
-515
511
-501
455
-480
467
-501
486
-515
502
-524
511
-510
456
-489
465
-492
482
-506
501
-515
517
-519
-28
-542
-22
-541
-13
-46
44
-51
57
-55
535
-571
555
-586
570
-594
579
-579
587
-558
534
-562
550
-576
570
-586
585
-588
587
-567
534
-571
549
-567
565
-576
585
-580
593
-576
25
-620
35
-614
45
-94
100
-97
110
-96
-81
3
-55
-20
-24
-30
1
-30
25
-31
56
-23
81
-3
74
-2
25
-16
1
-16
-24
-15
-74
2
-81
3
-55
-20
-24
-30
1
-30
25
-31
56
-23
81
-3
74
-2
25
-16
1
-16
-24
-15
-74
2
-81
3
-55
-20
-24
-30
1
-30
25
-31
56
-23
81
-3
74
-2
25
-16
1
-16
-24
-15
-74
2
-56
1
-38
-13
-16
-20
1
-21
17
-21
38
-16
56
-1
50
-1
17
-11
1
-11
-16
-10
-50
1
477
-517
476
-513
474
-511
477
-506
478
-507
478
-503
476
-500
474
-496
476
-548
479
-493
478
-490
476
-485
-32
-582
-29
-583
-27
-33
32
-30
457
-489
471
-510
487
-524
496
-515
511
-501
455
-480
467
-501
486
-515
502
-524
511
-510
456
-489
465
-492
482
-506
501
-515
517
-519
-28
-542
-22
-541
-13
-46
44
-51
57
-55
535
-571
555
-586
570
-594
579
-579
587
-558
534
-562
550
-576
570
-586
585
-588
587
-567
534
-571
549
-567
565
-576
585
-580
593
-576
25
-620
35
-614
45
-94
100
-97
110
-96
-81
3
-55
-20
-24
-30
1
-30
25
-31
56
-23
81
-3
74
-2
25
-16
1
-16
-24
-15
-74
2
-81
3
-55
-20
-24
-30
1
-30
25
-31
56
-23
81
-3
74
-2
25
-16
1
-16
-24
-15
-74
2
-81
3
-55
-20
-24
-30
1
-30
25
-31
56
-23
81
-3
74
-2
25
-16
1
-16
-24
-15
-74
2
-56
1
-38
-13
-16
-20
1
-21
17
-21
38
-16
56
-1
50
-1
17
-11
1
-11
-16
-10
-50
1
477
-517
476
-513
474
-511
477
-506
478
-507
478
-503
476
-500
474
-496
476
-548
479
-493
478
-490
476
-485
-32
-582
-29
-583
-27
-33
32
-30
457
-489
471
-510
487
-524
496
-515
511
-501
455
-480
467
-501
486
-515
502
-524
511
-510
456
-489
465
-492
482
-506
501
-515
517
-519
-28
-542
-22
-541
-13
-46
44
-51
57
-55
535
-571
555
-586
570
-594
579
-579
587
-558
534
-562
550
-576
570
-586
585
-588
587
-567
534
-571
549
-567
565
-576
585
-580
593
-576
25
-620
35
-614
45
-94
100
-97
110
-96
-81
3
-55
-20
-24
-30
1
-30
25
-31
56
-23
81
-3
74
-2
25
-16
1
-16
-24
-15
-74
2
-81
3
-55
-20
-24
-30
1
-30
25
-31
56
-23
81
-3
74
-2
25
-16
1
-16
-24
-15
-74
2
-81
3
-55
-20
-24
-30
1
-30
25
-31
56
-23
81
-3
74
-2
25
-16
1
-16
-24
-15
-74
2
-56
1
-38
-13
-16
-20
1
-21
17
-21
38
-16
56
-1
50
-1
17
-11
1
-11
-16
-10
-50
1
477
-517
476
-513
474
-511
477
-506
478
-507
478
-503
476
-500
474
-496
476
-548
479
-493
478
-490
476
-485
-32
-582
-29
-583
-27
-33
32
-30
457
-489
471
-510
487
-524
496
-515
511
-501
455
-480
467
-501
486
-515
502
-524
511
-510
456
-489
465
-492
482
-506
501
-515
517
-519
-28
-542
-22
-541
-13
-46
44
-51
57
-55
535
-571
555
-586
570
-594
579
-579
587
-558
534
-562
550
-576
570
-586
585
-588
587
-567
534
-571
549
-567
565
-576
585
-580
593
-576
25
-620
35
-614
45
-94
100
-97
110
-96
-81
3
-55
-20
-24
-30
1
-30
25
-31
56
-23
81
-3
74
-2
25
-16
1
-16
-24
-15
-74
2
-81
3
-55
-20
-24
-30
1
-30
25
-31
56
-23
81
-3
74
-2
25
-16
1
-16
-24
-15
-74
2
-81
3
-55
-20
-24
-30
1
-30
25
-31
56
-23
81
-3
74
-2
25
-16
1
-16
-24
-15
-74
2
-56
1
-38
-13
-16
-20
1
-21
17
-21
38
-16
56
-1
50
-1
17
-11
1
-11
-16
-10
-50
1
477
-517
476
-513
474
-511
477
-506
478
-507
478
-503
476
-500
474
-496
476
-548
479
-493
478
-490
476
-485
-32
-582
-29
-583
-27
-33
32
-30
457
-489
471
-510
487
-524
496
-515
511
-501
455
-480
467
-501
486
-515
502
-524
511
-510
456
-489
465
-492
482
-506
501
-515
517
-519
-28
-542
-22
-541
-13
-46
44
-51
57
-55
506
-8
512
-14
526
-13
541
-497
512
-501
461
-498
472
-519
481
-515
496
-506
510
-492
457
-489
471
-510
487
-524
496
-515
511
-501
-29
-524
-21
-541
-7
-554
4
-562
8
-551
456
-489
465
-2
527
-13
545
-19
561
-20
502
-2
511
-8
526
-497
497
-506
516
-510
462
-507
466
-510
481
-506
495
-497
512
-501
-23
-542
-16
-559
-12
-554
-2
-544
7
-533
535
-571
555
-586
570
-594
579
-579
587
-558
534
-562
550
-576
570
-586
585
-588
587
-567
534
-571
549
-567
565
-576
585
-580
593
-576
25
-620
35
-614
45
-94
100
-97
110
-96
584
-68
596
-68
610
-62
625
-561
588
-558
540
-581
555
-594
564
-585
579
-570
587
-549
535
-571
555
-586
570
-594
579
-579
587
-558
25
-602
36
-614
51
-624
60
-629
60
-613
534
-571
549
-56
610
-62
629
-62
637
-55
581
-63
595
-62
610
-567
580
-570
593
-568
540
-589
549
-585
564
-576
579
-561
588
-558
31
-621
41
-632
45
-623
54
-611
60
-595
-81
3
-55
-20
-24
-30
1
-30
25
-31
56
-23
81
-3
74
-2
25
-16
1
-16
-24
-15
-74
2
-81
3
-55
-20
-24
-30
1
-30
25
-31
56
-23
81
-3
74
-2
25
-16
1
-16
-24
-15
-74
2
-81
3
-55
-20
-24
-30
1
-30
25
-31
56
-23
81
-3
74
-2
25
-16
1
-16
-24
-15
-74
2
-56
1
-38
-13
-16
-20
1
-21
17
-21
38
-16
56
-1
50
-1
17
-11
1
-11
-16
-10
-50
1
-81
3
-55
-20
-24
-30
1
-30
25
-31
56
-23
81
-3
74
-2
25
-16
1
-16
-24
-15
-74
2
-81
3
-55
-20
-24
-30
1
-30
25
-31
56
-23
81
-3
74
-2
25
-16
1
-16
-24
-15
-74
2
-81
3
-55
-20
-24
-30
1
-30
25
-31
56
-23
81
-3
74
-2
25
-16
1
-16
-24
-15
-74
2
-56
1
-38
-13
-16
-20
1
-21
17
-21
38
-16
56
-1
50
-1
17
-11
1
-11
-16
-10
-50
1
-81
3
-55
-20
-24
-30
1
-30
25
-31
56
-23
81
-3
74
-2
25
-16
1
-16
-24
-15
-74
2
-81
3
-55
-20
-24
-30
1
-30
25
-31
56
-23
81
-3
74
-2
25
-16
1
-16
-24
-15
-74
2
-81
3
-55
-20
-24
-30
1
-30
25
-31
56
-23
81
-3
74
-2
25
-16
1
-16
-24
-15
-74
2
-56
1
-38
-13
-16
-20
1
-21
17
-21
38
-16
56
-1
50
-1
17
-11
1
-11
-16
-10
-50
1
477
-517
476
-513
474
-511
477
-506
478
-507
478
-503
476
-500
474
-496
476
-548
479
-493
478
-490
476
-485
-32
-582
-29
-583
-27
-33
32
-30
535
-22
535
-15
537
-9
538
-465
477
-517
476
-513
474
-511
477
-506
478
-507
478
-503
476
-500
474
-496
-29
-592
-27
-542
-28
-542
-30
-542
473
-538
477
-534
479
19
538
27
535
-22
535
-15
537
-9
538
-465
477
-517
476
-513
474
-511
477
-506
-27
-551
-28
-552
-30
-552
-32
-553
457
-489
471
-510
487
-524
496
-515
511
-501
455
-480
467
-501
486
-515
502
-524
511
-510
456
-489
465
-492
482
-506
501
-515
517
-519
-28
-542
-22
-541
-13
-46
44
-51
57
-55
535
-571
555
-586
570
-594
579
-579
587
-558
534
-562
550
-576
570
-586
585
-588
587
-567
534
-571
549
-567
565
-576
585
-580
593
-576
25
-620
35
-614
45
-94
100
-97
110
-96
-81
3
-55
-20
-24
-30
1
-30
25
-31
56
-23
81
-3
74
-2
25
-16
1
-16
-24
-15
-74
2
-81
3
-55
-20
-24
-30
1
-30
25
-31
56
-23
81
-3
74
-2
25
-16
1
-16
-24
-15
-74
2
-81
3
-55
-20
-24
-30
1
-30
25
-31
56
-23
81
-3
74
-2
25
-16
1
-16
-24
-15
-74
2
-56
1
-38
-13
-16
-20
1
-21
17
-21
38
-16
56
-1
50
-1
17
-11
1
-11
-16
-10
-50
1
477
-517
476
-513
474
-511
477
-506
478
-507
478
-503
476
-500
474
-496
476
-548
479
-493
478
-490
476
-485
-32
-582
-29
-583
-27
-33
32
-30
457
-489
471
-510
487
-524
496
-515
511
-501
455
-480
467
-501
486
-515
502
-524
511
-510
456
-489
465
-492
482
-506
501
-515
517
-519
-28
-542
-22
-541
-13
-46
44
-51
57
-55
535
-571
555
-586
570
-594
579
-579
587
-558
534
-562
550
-576
570
-586
585
-588
587
-567
534
-571
549
-567
565
-576
585
-580
593
-576
25
-620
35
-614
45
-94
100
-97
110
-96
-81
3
-55
-20
-24
-30
1
-30
25
-31
56
-23
81
-3
74
-2
25
-16
1
-16
-24
-15
-74
2
-81
3
-55
-20
-24
-30
1
-30
25
-31
56
-23
81
-3
74
-2
25
-16
1
-16
-24
-15
-74
2
-81
3
-55
-20
-24
-30
1
-30
25
-31
56
-23
81
-3
74
-2
25
-16
1
-16
-24
-15
-74
2
-56
1
-38
-13
-16
-20
1
-21
17
-21
38
-16
56
-1
50
-1
17
-11
1
-11
-16
-10
-50
1
477
-517
476
-513
474
-511
477
-506
478
-507
478
-503
476
-500
474
-496
476
-548
479
-493
478
-490
476
-485
-32
-582
-29
-583
-27
-33
32
-30
457
-489
471
-510
487
-524
496
-515
511
-501
455
-480
467
-501
486
-515
502
-524
511
-510
456
-489
465
-492
482
-506
501
-515
517
-519
-28
-542
-22
-541
-13
-46
44
-51
57
-55
535
-571
555
-586
570
-594
579
-579
587
-558
534
-562
550
-576
570
-586
585
-588
587
-567
534
-571
549
-567
565
-576
585
-580
593
-576
25
-620
35
-614
45
-94
100
-97
110
-96
-81
3
-55
-20
-24
-30
1
-30
25
-31
56
-23
81
-3
74
-2
25
-16
1
-16
-24
-15
-74
2
-81
3
-55
-20
-24
-30
1
-30
25
-31
56
-23
81
-3
74
-2
25
-16
1
-16
-24
-15
-74
2
-81
3
-55
-20
-24
-30
1
-30
25
-31
56
-23
81
-3
74
-2
25
-16
1
-16
-24
-15
-74
2
-56
1
-38
-13
-16
-20
1
-21
17
-21
38
-16
56
-1
50
-1
17
-11
1
-11
-16
-10
-50
1
477
-517
476
-513
474
-511
477
-506
478
-507
478
-503
476
-500
474
-496
476
-548
479
-493
478
-490
476
-485
-32
-582
-29
-583
-27
-33
32
-30
457
-489
471
-510
487
-524
496
-515
511
-501
455
-480
467
-501
486
-515
502
-524
511
-510
456
-489
465
-492
482
-506
501
-515
517
-519
-28
-542
-22
-541
-13
-46
44
-51
57
-55
535
-571
555
-586
570
-594
579
-579
587
-558
534
-562
550
-576
570
-586
585
-588
587
-567
534
-571
549
-567
565
-576
585
-580
593
-576
25
-620
35
-614
45
-94
100
-97
110
-96
-81
3
-55
-20
-24
-30
1
-30
25
-31
56
-23
81
-3
74
-2
25
-16
1
-16
-24
-15
-74
2
-81
3
-55
-20
-24
-30
1
-30
25
-31
56
-23
81
-3
74
-2
25
-16
1
-16
-24
-15
-74
2
-81
3
-55
-20
-24
-30
1
-30
25
-31
56
-23
81
-3
74
-2
25
-16
1
-16
-24
-15
-74
2
-56
1
-38
-13
-16
-20
1
-21
17
-21
38
-16
56
-1
50
-1
17
-11
1
-11
-16
-10
-50
1
477
-517
476
-513
474
-511
477
-506
478
-507
478
-503
476
-500
474
-496
476
-548
479
-493
478
-490
476
-485
-32
-582
-29
-583
-27
-33
32
-30
457
-489
471
-510
487
-524
496
-515
511
-501
455
-480
467
-501
486
-515
502
-524
511
-510
456
-489
465
-492
482
-506
501
-515
517
-519
-28
-542
-22
-541
-13
-46
44
-51
57
-55
535
-571
555
-586
570
-594
579
-579
587
-558
534
-562
550
-576
570
-586
585
-588
587
-567
534
-571
549
-567
565
-576
585
-580
593
-576
25
-620
35
-614
45
-94
100
-97
110
-96
-81
3
-55
-20
-24
-30
1
-30
25
-31
56
-23
81
-3
74
-2
25
-16
1
-16
-24
-15
-74
2
-81
3
-55
-20
-24
-30
1
-30
25
-31
56
-23
81
-3
74
-2
25
-16
1
-16
-24
-15
-74
2
-81
3
-55
-20
-24
-30
1
-30
25
-31
56
-23
81
-3
74
-2
25
-16
1
-16
-24
-15
-74
2
-56
1
-38
-13
-16
-20
1
-21
17
-21
38
-16
56
-1
50
-1
17
-11
1
-11
-16
-10
-50
1
477
-517
476
-513
474
-511
477
-506
478
-507
478
-503
476
-500
474
-496
476
-548
479
-493
478
-490
476
-485
-32
-582
-29
-583
-27
-33
32
-30
457
-489
471
-510
487
-524
496
-515
511
-501
455
-480
467
-501
486
-515
502
-524
511
-510
456
-489
465
-492
482
-506
501
-515
517
-519
-28
-542
-22
-541
-13
-46
44
-51
57
-55
535
-571
555
-586
570
-594
579
-579
587
-558
534
-562
550
-576
570
-586
585
-588
587
-567
534
-571
549
-567
565
-576
585
-580
593
-576
25
-620
35
-614
45
-94
100
-97
110
-96
-81
3
-55
-20
-24
-30
1
-30
25
-31
56
-23
81
-3
74
-2
25
-16
1
-16
-24
-15
-74
2
-81
3
-55
-20
-24
-30
1
-30
25
-31
56
-23
81
-3
74
-2
25
-16
1
-16
-24
-15
-74
2
-81
3
-55
-20
-24
-30
1
-30
25
-31
56
-23
81
-3
74
-2
25
-16
1
-16
-24
-15
-74
2
-56
1
-38
-13
-16
-20
1
-21
17
-21
38
-16
56
-1
50
-1
17
-11
1
-11
-16
-10
-50
1
477
-517
476
-513
474
-511
477
-506
478
-507
478
-503
476
-500
474
-496
476
-548
479
-493
478
-490
476
-485
-32
-582
-29
-583
-27
-33
32
-30
457
-489
471
-510
487
-524
496
-515
511
-501
455
-480
467
-501
486
-515
502
-524
511
-510
456
-489
465
-492
482
-506
501
-515
517
-519
-28
-542
-22
-541
-13
-46
44
-51
57
-55
535
-571
555
-586
570
-594
579
-579
587
-558
534
-562
550
-576
570
-586
585
-588
587
-567
534
-571
549
-567
565
-576
585
-580
593
-576
25
-620
35
-614
45
-94
100
-97
110
-96
-81
3
-55
-20
-24
-30
1
-30
25
-31
56
-23
81
-3
74
-2
25
-16
1
-16
-24
-15
-74
2
-81
3
-55
-20
-24
-30
1
-30
25
-31
56
-23
81
-3
74
-2
25
-16
1
-16
-24
-15
-74
2
-81
3
-55
-20
-24
-30
1
-30
25
-31
56
-23
81
-3
74
-2
25
-16
1
-16
-24
-15
-74
2
-56
1
-38
-13
-16
-20
1
-21
17
-21
38
-16
56
-1
50
-1
17
-11
1
-11
-16
-10
-50
1
477
-517
476
-513
474
-511
477
-506
478
-507
478
-503
476
-500
474
-496
476
-548
479
-493
478
-490
476
-485
-32
-582
-29
-583
-27
-33
32
-30
457
-489
471
-510
487
-524
496
-515
511
-501
455
-480
467
-501
486
-515
502
-524
511
-510
456
-489
465
-492
482
-506
501
-515
517
-519
-28
-542
-22
-541
-13
-46
44
-51
57
-55
535
-571
555
-586
570
-594
579
-579
587
-558
534
-562
550
-576
570
-586
585
-588
587
-567
534
-571
549
-567
565
-576
585
-580
593
-576
25
-620
35
-614
45
-94
100
-97
110
-96
-81
3
-55
-20
-24
-30
1
-30
25
-31
56
-23
81
-3
74
-2
25
-16
1
-16
-24
-15
-74
2
-81
3
-55
-20
-24
-30
1
-30
25
-31
56
-23
81
-3
74
-2
25
-16
1
-16
-24
-15
-74
2
-81
3
-55
-20
-24
-30
1
-30
25
-31
56
-23
81
-3
74
-2
25
-16
1
-16
-24
-15
-74
2
-56
1
-38
-13
-16
-20
1
-21
17
-21
38
-16
56
-1
50
-1
17
-11
1
-11
-16
-10
-50
1
477
-517
476
-513
474
-511
477
-506
478
-507
478
-503
476
-500
474
-496
476
-548
479
-493
478
-490
476
-485
-32
-582
-29
-583
-27
-33
32
-30
457
-489
471
-510
487
-524
496
-515
511
-501
455
-480
467
-501
486
-515
502
-524
511
-510
456
-489
465
-492
482
-506
501
-515
517
-519
-28
-542
-22
-541
-13
-46
44
-51
57
-55
535
-571
555
-586
570
-594
579
-579
587
-558
534
-562
550
-576
570
-586
585
-588
587
-567
534
-571
549
-567
565
-576
585
-580
593
-576
25
-620
35
-614
45
-94
100
-97
110
-96
-81
3
-55
-20
-24
-30
1
-30
25
-31
56
-23
81
-3
74
-2
25
-16
1
-16
-24
-15
-74
2
-81
3
-55
-20
-24
-30
1
-30
25
-31
56
-23
81
-3
74
-2
25
-16
1
-16
-24
-15
-74
2
-81
3
-55
-20
-24
-30
1
-30
25
-31
56
-23
81
-3
74
-2
25
-16
1
-16
-24
-15
-74
2
-56
1
-38
-13
-16
-20
1
-21
17
-21
38
-16
56
-1
50
-1
17
-11
1
-11
-16
-10
-50
1
477
-517
476
-513
474
-511
477
-506
478
-507
478
-503
476
-500
474
-496
476
-548
479
-493
478
-490
476
-485
-32
-582
-29
-583
-27
-33
32
-30
457
-489
471
-510
487
-524
496
-515
511
-501
455
-480
467
-501
486
-515
502
-524
511
-510
456
-489
465
-492
482
-506
501
-515
517
-519
-28
-542
-22
-541
-13
-46
44
-51
57
-55
535
-571
555
-586
570
-594
579
-579
587
-558
534
-562
550
-576
570
-586
585
-588
587
-567
534
-571
549
-567
565
-576
585
-580
593
-576
25
-620
35
-614
45
-94
100
-97
110
-96
-81
3
-55
-20
-24
-30
1
-30
25
-31
56
-23
81
-3
74
-2
25
-16
1
-16
-24
-15
-74
2
-81
3
-55
-20
-24
-30
1
-30
25
-31
56
-23
81
-3
74
-2
25
-16
1
-16
-24
-15
-74
2
-81
3
-55
-20
-24
-30
1
-30
25
-31
56
-23
81
-3
74
-2
25
-16
1
-16
-24
-15
-74
2
-56
1
-38
-13
-16
-20
1
-21
17
-21
38
-16
56
-1
50
-1
17
-11
1
-11
-16
-10
-50
1
477
-517
476
-513
474
-511
477
-506
478
-507
478
-503
476
-500
474
-496
476
-548
479
-493
478
-490
476
-485
-32
-582
-29
-583
-27
-33
32
-30
