457
-489
471
-510
487
-524
496
-515
511
-501
455
-480
467
-501
486
-515
502
-524
511
-510
535
-571
555
-586
570
-594
579
-579
587
-558
534
-562
550
-576
570
-586
585
-588
587
-567
-81
3
-55
-20
-24
-30
1
-30
25
-31
56
-23
81
-3
74
-2
25
-16
1
-16
-24
-15
-74
2
-81
3
-55
-20
-24
-30
1
-30
25
-31
56
-23
81
-3
74
-2
25
-16
1
-16
-24
-15
-74
2
477
-517
476
-513
474
-511
477
-506
478
-507
478
-503
476
-500
474
-496
457
-489
471
-510
487
-524
496
-515
511
-501
455
-480
467
-501
486
-515
502
-524
511
-510
535
-571
555
-586
570
-594
579
-579
587
-558
534
-562
550
-576
570
-586
585
-588
587
-567
-81
3
-55
-20
-24
-30
1
-30
25
-31
56
-23
81
-3
74
-2
25
-16
1
-16
-24
-15
-74
2
-81
3
-55
-20
-24
-30
1
-30
25
-31
56
-23
81
-3
74
-2
25
-16
1
-16
-24
-15
-74
2
477
-517
476
-513
474
-511
477
-506
478
-507
478
-503
476
-500
474
-496
457
-489
471
-510
487
-524
496
-515
511
-501
455
-480
467
-501
486
-515
502
-524
511
-510
535
-571
555
-586
570
-594
579
-579
587
-558
534
-562
550
-576
570
-586
585
-588
587
-567
-81
3
-55
-20
-24
-30
1
-30
25
-31
56
-23
81
-3
74
-2
25
-16
1
-16
-24
-15
-74
2
-81
3
-55
-20
-24
-30
1
-30
25
-31
56
-23
81
-3
74
-2
25
-16
1
-16
-24
-15
-74
2
477
-517
476
-513
474
-511
477
-506
478
-507
478
-503
476
-500
474
-496
457
-489
471
-510
487
-524
496
-515
511
-501
455
-480
467
-501
486
-515
502
-524
511
-510
535
-571
555
-586
570
-594
579
-579
587
-558
534
-562
550
-576
570
-586
585
-588
587
-567
-81
3
-55
-20
-24
-30
1
-30
25
-31
56
-23
81
-3
74
-2
25
-16
1
-16
-24
-15
-74
2
-81
3
-55
-20
-24
-30
1
-30
25
-31
56
-23
81
-3
74
-2
25
-16
1
-16
-24
-15
-74
2
477
-517
476
-513
474
-511
477
-506
478
-507
478
-503
476
-500
474
-496
457
-489
471
-510
487
-524
496
-515
511
-501
455
-480
467
-501
486
-515
502
-524
511
-510
535
-571
555
-586
570
-594
579
-579
587
-558
534
-562
550
-576
570
-586
585
-588
587
-567
-81
3
-55
-20
-24
-30
1
-30
25
-31
56
-23
81
-3
74
-2
25
-16
1
-16
-24
-15
-74
2
-81
3
-55
-20
-24
-30
1
-30
25
-31
56
-23
81
-3
74
-2
25
-16
1
-16
-24
-15
-74
2
477
-517
476
-513
474
-511
477
-506
478
-507
478
-503
476
-500
474
-496
457
-489
471
-510
487
-524
496
-515
511
-501
455
-480
467
-501
486
-515
502
-524
511
-510
535
-571
555
-586
570
-594
579
-579
587
-558
534
-562
550
-576
570
-586
585
-588
587
-567
-81
3
-55
-20
-24
-30
1
-30
25
-31
56
-23
81
-3
74
-2
25
-16
1
-16
-24
-15
-74
2
-81
3
-55
-20
-24
-30
1
-30
25
-31
56
-23
81
-3
74
-2
25
-16
1
-16
-24
-15
-74
2
477
-517
476
-513
474
-511
477
-506
478
-507
478
-503
476
-500
474
-496
457
-489
471
-510
487
-524
496
-515
511
-501
455
-480
467
-501
486
-515
502
-524
511
-510
535
-571
555
-586
570
-594
579
-579
587
-558
534
-562
550
-576
570
-586
585
-588
587
-567
-81
3
-55
-20
-24
-30
1
-30
25
-31
56
-23
81
-3
74
-2
25
-16
1
-16
-24
-15
-74
2
-81
3
-55
-20
-24
-30
1
-30
25
-31
56
-23
81
-3
74
-2
25
-16
1
-16
-24
-15
-74
2
477
-517
476
-513
474
-511
477
-506
478
-507
478
-503
476
-500
474
-496
457
-489
471
-510
487
-524
496
-515
511
-501
455
-480
467
-501
486
-515
502
-524
511
-510
535
-571
555
-586
570
-594
579
-579
587
-558
534
-562
550
-576
570
-586
585
-588
587
-567
-81
3
-55
-20
-24
-30
1
-30
25
-31
56
-23
81
-3
74
-2
25
-16
1
-16
-24
-15
-74
2
-81
3
-55
-20
-24
-30
1
-30
25
-31
56
-23
81
-3
74
-2
25
-16
1
-16
-24
-15
-74
2
477
-517
476
-513
474
-511
477
-506
478
-507
478
-503
476
-500
474
-496
457
-489
471
-510
487
-524
496
-515
511
-501
455
-480
467
-501
486
-515
502
-524
511
-510
535
-571
555
-586
570
-594
579
-579
587
-558
534
-562
550
-576
570
-586
585
-588
587
-567
-81
3
-55
-20
-24
-30
1
-30
25
-31
56
-23
81
-3
74
-2
25
-16
1
-16
-24
-15
-74
2
-81
3
-55
-20
-24
-30
1
-30
25
-31
56
-23
81
-3
74
-2
25
-16
1
-16
-24
-15
-74
2
477
-517
476
-513
474
-511
477
-506
478
-507
478
-503
476
-500
474
-496
457
-489
471
-510
487
-524
496
-515
511
-501
455
-480
467
-501
486
-515
502
-524
511
-510
535
-571
555
-586
570
-594
579
-579
587
-558
534
-562
550
-576
570
-586
585
-588
587
-567
-81
3
-55
-20
-24
-30
1
-30
25
-31
56
-23
81
-3
74
-2
25
-16
1
-16
-24
-15
-74
2
-81
3
-55
-20
-24
-30
1
-30
25
-31
56
-23
81
-3
74
-2
25
-16
1
-16
-24
-15
-74
2
477
-517
476
-513
474
-511
477
-506
478
-507
478
-503
476
-500
474
-496
-2
-218
86
-315
168
-377
215
-303
299
-207
457
-616
567
-704
648
-772
706
-714
747
-618
-475
3
-305
-106
-132
-156
-4
-164
124
-166
304
-121
475
-3
429
-2
128
-107
1
-105
-126
-100
-429
2
93
-309
69
-277
48
-242
73
-197
-2
-218
86
-315
168
-377
215
-303
299
-207
457
-616
567
-704
648
-772
706
-714
747
-618
-475
3
-305
-106
-132
-156
-4
-164
124
-166
304
-121
475
-3
429
-2
128
-107
1
-105
-126
-100
-429
2
93
-309
69
-277
48
-242
73
-197
-2
-218
86
-315
168
-377
215
-303
299
-207
457
-616
567
-704
648
-772
706
-714
747
-618
-475
3
-305
-106
-132
-156
-4
-164
124
-166
304
-121
475
-3
429
-2
128
-107
1
-105
-126
-100
-429
2
93
-309
69
-277
48
-242
73
-197
18
-40
27
-54
38
-64
44
-57
53
-49
71
-97
85
-106
95
-111
101
-103
106
-90
-56
1
-38
-13
-16
-20
1
-21
17
-21
38
-16
56
-1
50
-1
17
-11
1
-11
-16
-10
-50
1
32
-59
30
-57
29
-54
31
-51
-2
-218
86
-315
168
-377
215
-303
299
-207
457
-616
567
-704
648
-772
706
-714
747
-618
-475
3
-305
-106
-132
-156
-4
-164
124
-166
304
-121
475
-3
429
-2
128
-107
1
-105
-126
-100
-429
2
93
-309
69
-277
48
-242
73
-197
18
-40
27
-54
38
-64
44
-57
53
-49
71
-97
85
-106
95
-111
101
-103
106
-90
-56
1
-38
-13
-16
-20
1
-21
17
-21
38
-16
56
-1
50
-1
17
-11
1
-11
-16
-10
-50
1
32
-59
30
-57
29
-54
31
-51
-2
-218
86
-315
168
-377
215
-303
299
-207
457
-616
567
-704
648
-772
706
-714
747
-618
-475
3
-305
-106
-132
-156
-4
-164
124
-166
304
-121
475
-3
429
-2
128
-107
1
-105
-126
-100
-429
2
93
-309
69
-277
48
-242
73
-197
-2
-218
86
-315
168
-377
215
-303
299
-207
457
-616
567
-704
648
-772
706
-714
747
-618
-475
3
-305
-106
-132
-156
-4
-164
124
-166
304
-121
475
-3
429
-2
128
-107
1
-105
-126
-100
-429
2
93
-309
69
-277
48
-242
73
-197
-2
-218
86
-315
168
-377
215
-303
299
-207
457
-616
567
-704
648
-772
706
-714
747
-618
-475
3
-305
-106
-132
-156
-4
-164
124
-166
304
-121
475
-3
429
-2
128
-107
1
-105
-126
-100
-429
2
93
-309
69
-277
48
-242
73
-197
-2
-218
86
-315
168
-377
215
-303
299
-207
457
-616
567
-704
648
-772
706
-714
747
-618
-475
3
-305
-106
-132
-156
-4
-164
124
-166
304
-121
475
-3
429
-2
128
-107
1
-105
-126
-100
-429
2
93
-309
69
-277
48
-242
73
-197
-2
-218
86
-315
168
-377
215
-303
299
-207
457
-616
567
-704
648
-772
706
-714
747
-618
-475
3
-305
-106
-132
-156
-4
-164
124
-166
304
-121
475
-3
429
-2
128
-107
1
-105
-126
-100
-429
2
93
-309
69
-277
48
-242
73
-197
-2
-218
86
-315
168
-377
215
-303
299
-207
457
-616
567
-704
648
-772
706
-714
747
-618
-475
3
-305
-106
-132
-156
-4
-164
124
-166
304
-121
475
-3
429
-2
128
-107
1
-105
-126
-100
-429
2
93
-309
69
-277
48
-242
73
-197
-2
-218
86
-315
168
-377
215
-303
299
-207
457
-616
567
-704
648
-772
706
-714
747
-618
-475
3
-305
-106
-132
-156
-4
-164
124
-166
304
-121
475
-3
429
-2
128
-107
1
-105
-126
-100
-429
2
93
-309
69
-277
48
-242
73
-197
-2
-218
86
-315
168
-377
215
-303
299
-207
457
-616
567
-704
648
-772
706
-714
747
-618
-475
3
-305
-106
-132
-156
-4
-164
124
-166
304
-121
475
-3
429
-2
128
-107
1
-105
-126
-100
-429
2
93
-309
69
-277
48
-242
73
-197
