245
-669
369
-871
537
-1000
679
-883
809
-731
1055
-1445
1250
-1618
1420
-1752
1578
-1624
1661
-1420
-670
29
-441
-96
-210
-167
-10
-162
188
-181
423
-136
670
-29
564
-23
195
-1
-2
4
-199
13
-564
23
407
-888
362
-811
330
-738
376
-654
245
-669
369
-871
537
-1000
679
-883
809
-731
1055
-1445
1250
-1618
1420
-1752
1578
-1624
1661
-1420
-670
29
-441
-96
-210
-167
-10
-162
188
-181
423
-136
670
-29
564
-23
195
-1
-2
4
-199
13
-564
23
407
-888
362
-811
330
-738
376
-654
245
-669
369
-871
537
-1000
679
-883
809
-731
1055
-1445
1250
-1618
1420
-1752
1578
-1624
1661
-1420
-670
29
-441
-96
-210
-167
-10
-162
188
-181
423
-136
670
-29
564
-23
195
-1
-2
4
-199
13
-564
23
407
-888
362
-811
330
-738
376
-654
245
-669
369
-871
537
-1000
679
-883
809
-731
1055
-1445
1250
-1618
1420
-1752
1578
-1624
1661
-1420
-670
29
-441
-96
-210
-167
-10
-162
188
-181
423
-136
670
-29
564
-23
195
-1
-2
4
-199
13
-564
23
407
-888
362
-811
330
-738
376
-654
245
-669
369
-871
537
-1000
679
-883
809
-731
1055
-1445
1250
-1618
1420
-1752
1578
-1624
1661
-1420
-670
29
-441
-96
-210
-167
-10
-162
188
-181
423
-136
670
-29
564
-23
195
-1
-2
4
-199
13
-564
23
407
-888
362
-811
330
-738
376
-654
245
-669
369
-871
537
-1000
679
-883
809
-731
1055
-1445
1250
-1618
1420
-1752
1578
-1624
1661
-1420
-670
29
-441
-96
-210
-167
-10
-162
188
-181
423
-136
670
-29
564
-23
195
-1
-2
4
-199
13
-564
23
407
-888
362
-811
330
-738
376
-654
245
-669
369
-871
537
-1000
679
-883
809
-731
1055
-1445
1250
-1618
1420
-1752
1578
-1624
1661
-1420
-670
29
-441
-96
-210
-167
-10
-162
188
-181
423
-136
670
-29
564
-23
195
-1
-2
4
-199
13
-564
23
407
-888
362
-811
330
-738
376
-654
245
-669
369
-871
537
-1000
679
-883
809
-731
1055
-1445
1250
-1618
1420
-1752
1578
-1624
1661
-1420
-670
29
-441
-96
-210
-167
-10
-162
188
-181
423
-136
670
-29
564
-23
195
-1
-2
4
-199
13
-564
23
407
-888
362
-811
330
-738
376
-654
245
-669
369
-871
537
-1000
679
-883
809
-731
1055
-1445
1250
-1618
1420
-1752
1578
-1624
1661
-1420
-670
29
-441
-96
-210
-167
-10
-162
188
-181
423
-136
670
-29
564
-23
195
-1
-2
4
-199
13
-564
23
407
-888
362
-811
330
-738
376
-654
245
-669
369
-871
537
-1000
679
-883
809
-731
1055
-1445
1250
-1618
1420
-1752
1578
-1624
1661
-1420
-670
29
-441
-96
-210
-167
-10
-162
188
-181
423
-136
670
-29
564
-23
195
-1
-2
4
-199
13
-564
23
407
-888
362
-811
330
-738
376
-654
245
-669
369
-871
537
-1000
679
-883
809
-731
1055
-1445
1250
-1618
1420
-1752
1578
-1624
1661
-1420
-670
29
-441
-96
-210
-167
-10
-162
188
-181
423
-136
670
-29
564
-23
195
-1
-2
4
-199
13
-564
23
407
-888
362
-811
330
-738
376
-654
245
-669
369
-871
537
-1000
679
-883
809
-731
1055
-1445
1250
-1618
1420
-1752
1578
-1624
1661
-1420
-670
29
-441
-96
-210
-167
-10
-162
188
-181
423
-136
670
-29
564
-23
195
-1
-2
4
-199
13
-564
23
407
-888
362
-811
330
-738
376
-654
245
-669
369
-871
537
-1000
679
-883
809
-731
1055
-1445
1250
-1618
1420
-1752
1578
-1624
1661
-1420
-670
29
-441
-96
-210
-167
-10
-162
188
-181
423
-136
670
-29
564
-23
195
-1
-2
4
-199
13
-564
23
407
-888
362
-811
330
-738
376
-654
245
-669
369
-871
537
-1000
679
-883
809
-731
1055
-1445
1250
-1618
1420
-1752
1578
-1624
1661
-1420
-670
29
-441
-96
-210
-167
-10
-162
188
-181
423
-136
670
-29
564
-23
195
-1
-2
4
-199
13
-564
23
407
-888
362
-811
330
-738
376
-654
245
-669
369
-871
537
-1000
679
-883
809
-731
1055
-1445
1250
-1618
1420
-1752
1578
-1624
1661
-1420
-670
29
-441
-96
-210
-167
-10
-162
188
-181
423
-136
670
-29
564
-23
195
-1
-2
4
-199
13
-564
23
407
-888
362
-811
330
-738
376
-654
245
-669
369
-871
537
-1000
679
-883
809
-731
1055
-1445
1250
-1618
1420
-1752
1578
-1624
1661
-1420
-670
29
-441
-96
-210
-167
-10
-162
188
-181
423
-136
670
-29
564
-23
195
-1
-2
4
-199
13
-564
23
407
-888
362
-811
330
-738
376
-654
245
-669
369
-871
537
-1000
679
-883
809
-731
1055
-1445
1250
-1618
1420
-1752
1578
-1624
1661
-1420
-670
29
-441
-96
-210
-167
-10
-162
188
-181
423
-136
670
-29
564
-23
195
-1
-2
4
-199
13
-564
23
407
-888
362
-811
330
-738
376
-654
245
-669
369
-871
537
-1000
679
-883
809
-731
1055
-1445
1250
-1618
1420
-1752
1578
-1624
1661
-1420
-670
29
-441
-96
-210
-167
-10
-162
188
-181
423
-136
670
-29
564
-23
195
-1
-2
4
-199
13
-564
23
407
-888
362
-811
330
-738
376
-654
245
-669
369
-871
537
-1000
679
-883
809
-731
1055
-1445
1250
-1618
1420
-1752
1578
-1624
1661
-1420
-670
29
-441
-96
-210
-167
-10
-162
188
-181
423
-136
670
-29
564
-23
195
-1
-2
4
-199
13
-564
23
407
-888
362
-811
330
-738
376
-654
245
-669
369
-871
537
-1000
679
-883
809
-731
1055
-1445
1250
-1618
1420
-1752
1578
-1624
1661
-1420
-670
29
-441
-96
-210
-167
-10
-162
188
-181
423
-136
670
-29
564
-23
195
-1
-2
4
-199
13
-564
23
407
-888
362
-811
330
-738
376
-654
245
-669
369
-871
537
-1000
679
-883
809
-731
1055
-1445
1250
-1618
1420
-1752
1578
-1624
1661
-1420
-670
29
-441
-96
-210
-167
-10
-162
188
-181
423
-136
670
-29
564
-23
195
-1
-2
4
-199
13
-564
23
407
-888
362
-811
330
-738
376
-654
245
-669
369
-871
537
-1000
679
-883
809
-731
1055
-1445
1250
-1618
1420
-1752
1578
-1624
1661
-1420
-670
29
-441
-96
-210
-167
-10
-162
188
-181
423
-136
670
-29
564
-23
195
-1
-2
4
-199
13
-564
23
407
-888
362
-811
330
-738
376
-654
245
-669
369
-871
537
-1000
679
-883
809
-731
1055
-1445
1250
-1618
1420
-1752
1578
-1624
1661
-1420
-670
29
-441
-96
-210
-167
-10
-162
188
-181
423
-136
670
-29
564
-23
195
-1
-2
4
-199
13
-564
23
407
-888
362
-811
330
-738
376
-654
245
-669
369
-871
537
-1000
679
-883
809
-731
1055
-1445
1250
-1618
1420
-1752
1578
-1624
1661
-1420
-670
29
-441
-96
-210
-167
-10
-162
188
-181
423
-136
670
-29
564
-23
195
-1
-2
4
-199
13
-564
23
407
-888
362
-811
330
-738
376
-654
245
-669
369
-871
537
-1000
679
-883
809
-731
1055
-1445
1250
-1618
1420
-1752
1578
-1624
1661
-1420
-670
29
-441
-96
-210
-167
-10
-162
188
-181
423
-136
670
-29
564
-23
195
-1
-2
4
-199
13
-564
23
407
-888
362
-811
330
-738
376
-654
245
-669
369
-871
537
-1000
679
-883
809
-731
1055
-1445
1250
-1618
1420
-1752
1578
-1624
1661
-1420
-670
29
-441
-96
-210
-167
-10
-162
188
-181
423
-136
670
-29
564
-23
195
-1
-2
4
-199
13
-564
23
407
-888
362
-811
330
-738
376
-654
245
-669
369
-871
537
-1000
679
-883
809
-731
1055
-1445
1250
-1618
1420
-1752
1578
-1624
1661
-1420
-670
29
-441
-96
-210
-167
-10
-162
188
-181
423
-136
670
-29
564
-23
195
-1
-2
4
-199
13
-564
23
407
-888
362
-811
330
-738
376
-654
245
-669
369
-871
537
-1000
679
-883
809
-731
1055
-1445
1250
-1618
1420
-1752
1578
-1624
1661
-1420
-670
29
-441
-96
-210
-167
-10
-162
188
-181
423
-136
670
-29
564
-23
195
-1
-2
4
-199
13
-564
23
407
-888
362
-811
330
-738
376
-654
245
-669
369
-871
537
-1000
679
-883
809
-731
1055
-1445
1250
-1618
1420
-1752
1578
-1624
1661
-1420
-670
29
-441
-96
-210
-167
-10
-162
188
-181
423
-136
670
-29
564
-23
195
-1
-2
4
-199
13
-564
23
407
-888
362
-811
330
-738
376
-654
245
-669
369
-871
537
-1000
679
-883
809
-731
1055
-1445
1250
-1618
1420
-1752
1578
-1624
1661
-1420
-670
29
-441
-96
-210
-167
-10
-162
188
-181
423
-136
670
-29
564
-23
195
-1
-2
4
-199
13
-564
23
407
-888
362
-811
330
-738
376
-654
245
-669
369
-871
537
-1000
679
-883
809
-731
1055
-1445
1250
-1618
1420
-1752
1578
-1624
1661
-1420
-670
29
-441
-96
-210
-167
-10
-162
188
-181
423
-136
670
-29
564
-23
195
-1
-2
4
-199
13
-564
23
407
-888
362
-811
330
-738
376
-654
245
-669
369
-871
537
-1000
679
-883
809
-731
206
-563
352
-764
527
-900
703
-986
845
-838
212
-666
313
-658
510
-793
693
-886
869
-941
1055
-1445
1250
-1618
1420
-1752
1578
-1624
1661
-1420
1026
-1337
1220
-1509
1423
-1647
1590
-1724
1706
-1529
1025
-1450
1191
-1401
1393
-1538
1593
-1619
1718
-1629
-670
29
-441
-96
-210
-167
-10
-162
188
-181
423
-136
670
-29
564
-23
195
-1
-2
4
-199
13
-564
23
-670
29
-441
-96
-210
-167
-10
-162
188
-181
423
-136
670
-29
564
-23
195
-1
-2
4
-199
13
-564
23
-670
29
-441
-96
-210
-167
-10
-162
188
-181
423
-136
670
-29
564
-23
195
-1
-2
4
-199
13
-564
23
407
-888
362
-811
330
-738
376
-654
418
-796
410
-707
364
-634
333
-559
368
-1191
421
-615
412
-530
367
-455
245
-669
369
-871
537
-1000
679
-883
809
-731
1055
-1445
1250
-1618
1420
-1752
1578
-1624
1661
-1420
-670
29
-441
-96
-210
-167
-10
-162
188
-181
423
-136
670
-29
564
-23
195
-1
-2
4
-199
13
-564
23
407
-888
362
-811
330
-738
376
-654
245
-669
369
-871
537
-1000
679
-883
809
-731
1055
-1445
1250
-1618
1420
-1752
1578
-1624
1661
-1420
-670
29
-441
-96
-210
-167
-10
-162
188
-181
423
-136
670
-29
564
-23
195
-1
-2
4
-199
13
-564
23
407
-888
362
-811
330
-738
376
-654
245
-669
369
-871
537
-1000
679
-883
809
-731
1055
-1445
1250
-1618
1420
-1752
1578
-1624
1661
-1420
-670
29
-441
-96
-210
-167
-10
-162
188
-181
423
-136
670
-29
564
-23
195
-1
-2
4
-199
13
-564
23
407
-888
362
-811
330
-738
376
-654
245
-669
369
-871
537
-1000
679
-883
809
-731
1055
-1445
1250
-1618
1420
-1752
1578
-1624
1661
-1420
-670
29
-441
-96
-210
-167
-10
-162
188
-181
423
-136
670
-29
564
-23
195
-1
-2
4
-199
13
-564
23
407
-888
362
-811
330
-738
376
-654
245
-669
369
-871
537
-1000
679
-883
809
-731
1055
-1445
1250
-1618
1420
-1752
1578
-1624
1661
-1420
-670
29
-441
-96
-210
-167
-10
-162
188
-181
423
-136
670
-29
564
-23
195
-1
-2
4
-199
13
-564
23
407
-888
362
-811
330
-738
376
-654
245
-669
369
-871
537
-1000
679
-883
809
-731
1055
-1445
1250
-1618
1420
-1752
1578
-1624
1661
-1420
-670
29
-441
-96
-210
-167
-10
-162
188
-181
423
-136
670
-29
564
-23
195
-1
-2
4
-199
13
-564
23
407
-888
362
-811
330
-738
376
-654
245
-669
369
-871
537
-1000
679
-883
809
-731
1055
-1445
1250
-1618
1420
-1752
1578
-1624
1661
-1420
-670
29
-441
-96
-210
-167
-10
-162
188
-181
423
-136
670
-29
564
-23
195
-1
-2
4
-199
13
-564
23
407
-888
362
-811
330
-738
376
-654
245
-669
369
-871
537
-1000
679
-883
809
-731
1055
-1445
1250
-1618
1420
-1752
1578
-1624
1661
-1420
-670
29
-441
-96
-210
-167
-10
-162
188
-181
423
-136
670
-29
564
-23
195
-1
-2
4
-199
13
-564
23
407
-888
362
-811
330
-738
376
-654
245
-669
369
-871
537
-1000
679
-883
809
-731
1055
-1445
1250
-1618
1420
-1752
1578
-1624
1661
-1420
-670
29
-441
-96
-210
-167
-10
-162
188
-181
423
-136
670
-29
564
-23
195
-1
-2
4
-199
13
-564
23
407
-888
362
-811
330
-738
376
-654
245
-669
369
-871
537
-1000
679
-883
809
-731
1055
-1445
1250
-1618
1420
-1752
1578
-1624
1661
-1420
-670
29
-441
-96
-210
-167
-10
-162
188
-181
423
-136
670
-29
564
-23
195
-1
-2
4
-199
13
-564
23
407
-888
362
-811
330
-738
376
-654
